tree
version=v3
num_class=1
num_tree_per_iteration=1
label_index=0
max_feature_idx=14
objective=regression
feature_names=PrecursorMz Mass PrecursorCharge PepLength NumBulky NumTiny NumProlines NumGlycines NumSerines NumPos PosIndexL PosIndexR NumNeg NegIndexL NegIndexR
feature_infos=[290.52375532089195:1702.8951537655421] [672.41592827984402:5568.7013259629502] [1:5] [7:52] [0:18] [0:25] [0:13] [0:38] [0:20] [0:6] [0:1] [0:1] [0:21] [0:1] [0:1]
tree_sizes=4619 4855 4871 4866 4874 4876 4872 4869 4877 4880 4902 4898 4906 4902 4907 4909 4904 4931 4924 4935 4947 4927 4935 4924 4950 4950 4964 4937 4959 4959 4941 4950 4954 4978 4994 4965 4963 4971 4976 4982 4990 4983 4959 4990 5004 4997 5006 4964 4985 4977 5004 5037 5036 4983 5005 4966 5011 5033 5007 4991 5020 5023 4986 4980 5010 5008 5032 5040 4997 5006 5027 5004 5027 5016 5021 5010 5011 5047 5016 5034 5030 5035 5053 5042 4982 5057 5059 5055 5059 5040 5046 5035 5051 5037 5043 5057 5031 4998 5005 5072 5040 5015 5017 5043 5066 5028 4972 5039 5010 5017 5032 5091 4976 5069 5085 5002 5023 5003 5034 5028 5050 4996 4982 5063 5063 4991 4997 4950 5013 5019 5026 4979 5051 5017 4982 5027 5021 5030 4969 5005 5081 4959 4908 4959 5023 4985 4964 4966 5050 4926 4988 5024 4966 4906 5039 5019 4996 5010 4977 4923 4969 5029 4987 4993 5085 4936 4958 4982 4945 4931 4933 4996 4942 4968 4936 4895 4965 5014 4988 4922 4930 4996 4831 4963 5025 4886 4930 5020 4884 4945 4946 4936 4929 4982 4830 4905 5017 4911 4957 4917 5022 5035 4829 4869 4944 4805 4987 4925 4877 4917 4922 4841 4957 4875 4856 4942 4854 4898 4861 4863 4997 4867 4819 4951 5086 4828 4966 5008 4904 4942 4902 4890 4923 4900 4786 4891 5011 4932 4899 4811 4926 4890 4846 5045 4880 5021 4954 4864 4906 4941 4780 4913 5083 4865 4881 4885 4859 4793 5095 4933 4838 4856 4925 4815 4915 4936 5030 4869 4818 4789 5034 4874 4851 4863 4785 4875 4951 5046 4826 4858 4947 4937 4830 4828 4883 4959 4836 4853 5082 4812 4941 4809 4809 4848 4841 4981 4804 4810 5003 4830 4818 4738 4967 4829 4897 4805 4940 4774 4913 5026 4833 4762 4893 4985 4797 4796 4986 4816 4890 4927 4871 4809 4743 4817 4905 4826 4770 4846 4923 4834 5068 4892 4755 4829 4904 4981 4810 4910 4780 4775 4765 5090 4952 4742 4885 4778 5075 4797 4854 4766 4823 4851 4928 4895 4842 4992 4768 4761 4975 4851 4892 4830 4774 4913 5060 4781 4800 4800 4801 5034 4839 5019 4864 4934 4928 4821 4821 4937 4968 4816 4785 5045 4964 4813 4845 4850 4845 4878 4777 4796 4751 4792 4989 4919 4904 4899 4882 4952 4859 4816 4761 5050 4836 4865 4820 5049 4842 4954 4926 4869 4789 4797 4939 4836 4861 4900 4840 4758 4801 4788 4815 4843 4771 4977 5002 4898 4766 4817 4782 4834 5098 4867 4863 4865 4815 4930 4810 4796 4972 4845 4846 4839 4825 4790 4879 4870 4903 4960 4771 4861 4968 4869 4933 4897 4870 4922 4792 4907 5022 4795 4985 4868 4886 4778 4838 4881 4916 4791 4870 4858 4932 4855 4751 4760 4776 4917 4836 4841 4952 4932 4794 4886 4895 4906 4832 4852 4884 5023 4981 4777 4773 4959 4927 4851 4772 4998 4782 4860 4828 4889 4944 5032 4838 4898 4833 4869 4878 4967 4766 4897 4834 4785 4850 4844

Tree=0
num_leaves=51
num_cat=0
split_feature=0 0 0 1 2 0 0 0 0 1 1 0 1 0 0 0 0 0 0 0 0 0 1 1 1 1 3 1 0 0 0 10 10 10 10 1 10 0 0 0 10 10 1 10 10 10 9 4 10 10
split_gain=3790.8 656.706 627.371 142.561 130.321 95.3537 91.5759 75.2931 70.6239 46.4129 30.3382 26.0925 19.3512 16.9543 12.863 10.0311 9.80116 9.591 8.62294 8.51978 8.3944 6.79224 4.97625 4.62234 4.36013 3.98625 3.55733 3.48829 3.10464 3.07442 2.23533 2.15609 2.11783 1.93263 1.89569 1.86642 1.72849 1.58948 1.55705 1.5143 1.44592 1.41261 1.29324 1.26966 1.24874 1.1983 1.45769 1.11393 1.06246 1.03268
threshold=755.3515593304021 1007.5118299007487 571.97651765563876 2251.1234410074267 2.5000000000000004 478.76644316449716 656.34241854418212 865.45763568221207 1187.5997340955021 1966.0031804422072 1710.9654844822753 861.95849707912703 1430.7180435781554 418.890417872782 1187.5997340955021 933.44303385326884 1086.8692189335923 1321.1033005038273 803.94840676866716 698.85635485371711 526.78509853755702 613.81734419944712 1251.6307572680143 2118.0588098971061 1570.8321245839154 1834.9472229483665 13.500000000000002 2423.1344677252664 920.13071123443217 1364.7041533538422 391.20894585815876 0.93218390804597717 0.90550595238095244 0.93440860215053767 0.92052631578947375 2875.3264341504796 0.913664596273292 1104.0542682349771 728.36581536889219 447.70857959119701 0.36899313501144165 0.4431524547803618 2503.1236745302976 0.90550595238095244 0.39339826839826847 0.6478537360890303 2.5000000000000004 4.5000000000000009 0.44590643274853808 0.6984848484848486
decision_type=2 2 2 2 2 2 2 2 2 2 2 2 2 2 2 2 2 2 2 2 2 2 2 2 2 2 2 2 2 2 2 2 2 2 2 2 2 2 2 2 2 2 2 2 2 2 2 2 2 2
left_child=2 3 5 7 8 13 10 18 16 19 21 27 20 30 37 34 31 26 43 -8 -7 -4 39 45 -14 -12 -10 49 -13 -16 -1 44 41 48 40 -19 47 -6 -21 -15 -9 -17 -28 -2 -3 46 -11 -20 -18 -5
right_child=1 4 6 11 14 12 9 15 17 23 25 28 24 22 29 32 33 35 36 38 -22 -23 -24 -25 -26 -27 42 -29 -30 -31 -32 -33 -34 -35 -36 -37 -38 -39 -40 -41 -42 -43 -44 -45 -46 -47 -48 -49 -50 -51
leaf_value=0.97533919017343784 0.99212408725815793 1.0001277076379169 0.98484000272253602 0.98742388673164116 0.99434114570267451 0.98144997272480228 0.98800710092446342 0.99548609181908043 1.0127079854919485 0.98388125766411527 0.98219586885648347 0.99089847429376621 0.97939739850009055 0.97872172376772804 0.99838566284393038 0.99776972503296624 1.0027641464300754 1.008782940306495 0.99358540543620744 0.98929394453197694 0.98322645933625741 0.98645387605386992 0.97789052905162888 0.98647220016868997 0.98089079863062745 0.98363125926775241 1.0049463727509897 0.9893009912287436 0.99246750609557943 1.0029742475725887 0.97685438918674039 0.99936417850786796 0.99703354200015426 1.001874010026798 0.99496780494976955 1.0117349458209162 0.99288680224151626 0.99603197133787724 0.99031253678540621 0.97992017942198473 0.99699569481851757 0.99941915592419872 1.0065876634283697 0.99108448900164337 1.0018062956727074 0.98590604037368945 0.98540511515760665 0.99493405045357497 1.004482430929637 0.98880858831086704
leaf_weight=4389 6153 2230 13036 4954 4206 13035 12658 3190 185 3348 7945 6141 7942 4443 1685 2995 2047 1965 4440 8092 13575 13042 10038 11965 12708 12364 2819 8987 6479 466 5465 4035 4796 3491 5490 736 6031 2076 6995 6480 3155 2291 2090 5619 2202 2412 2954 2337 1605 1849
leaf_count=4389 6153 2230 13036 4954 4206 13035 12658 3190 185 3348 7945 6141 7942 4443 1685 2995 2047 1965 4440 8092 13575 13042 10038 11965 12708 12364 2819 8987 6479 466 5465 4035 4796 3491 5490 736 6031 2076 6995 6480 3155 2291 2090 5619 2202 2412 2954 2337 1605 1849
internal_value=0.987948 0.995356 0.983373 0.9928 1.00137 0.980054 0.986106 0.994505 1.00329 0.987627 0.984519 0.990009 0.981465 0.97789 0.996043 0.996635 1.00135 1.00718 0.992605 0.988964 0.982356 0.985647 0.978694 0.985834 0.980316 0.98307 1.0059 0.988654 0.991704 0.99938 0.97618 1.0002 0.997794 1.00272 0.995648 1.00959 0.993503 0.9949 0.989766 0.979433 0.996237 0.998485 1.00565 0.991628 1.00096 0.984958 0.984596 0.99405 1.00352 0.9878
internal_weight=0 106745 172886 74907 31838 78075 94811 46497 23405 48424 46387 28410 47260 30815 8433 21917 15610 7795 24580 27745 26610 26078 20961 20679 20650 20309 5094 15790 12620 2151 9854 8467 10082 7143 11835 2701 12808 6282 15087 10923 6345 5286 4909 11772 4432 8714 6302 6777 3652 6803
internal_count=279631 106745 172886 74907 31838 78075 94811 46497 23405 48424 46387 28410 47260 30815 8433 21917 15610 7795 24580 27745 26610 26078 20961 20679 20650 20309 5094 15790 12620 2151 9854 8467 10082 7143 11835 2701 12808 6282 15087 10923 6345 5286 4909 11772 4432 8714 6302 6777 3652 6803
is_linear=0
shrinkage=1


Tree=1
num_leaves=51
num_cat=0
split_feature=0 0 0 1 2 0 0 0 0 1 1 0 1 0 0 0 0 0 0 0 1 0 0 1 1 1 3 1 1 0 10 0 10 1 10 10 10 0 4 1 1 0 10 1 1 10 9 9 10 10
split_gain=3421.19 592.677 566.237 128.661 117.615 93.9207 74.4169 67.9844 63.738 38.7061 29.0454 23.5485 19.1318 15.3012 11.6088 9.28091 9.25607 8.84979 8.65587 7.70408 6.70844 5.8189 4.77334 4.49107 3.87107 3.35767 3.21049 3.15975 2.82773 2.77466 2.25366 2.01739 1.81087 1.69517 1.6454 1.49874 1.48231 1.46966 1.45211 1.44458 1.36852 1.36439 1.23944 1.16715 1.11973 1.108 1.32878 1.09481 1.04718 1.03857
threshold=755.3515593304021 1007.5118299007487 577.94158736229213 2251.1234410074267 2.5000000000000004 478.76644316449716 664.82673601874205 872.92399865907191 1187.5997340955021 1984.0536335644945 1723.9474886893252 861.95849707912703 1430.7180435781554 418.890417872782 1187.5997340955021 812.90213645256711 533.27994185234706 1104.0542682349771 1321.1033005038273 947.46592333298213 1240.6405020553241 710.35227943193206 524.6149202379321 1251.6307572680143 1886.8822339757951 2138.0891213547147 13.500000000000002 2408.1508409761141 2763.170641305167 1364.7041533538422 0.93218390804597717 391.20894585815876 0.92052631578947375 2904.5200653263769 0.90121951219512209 0.913664596273292 0.93440860215053767 1078.5099592134823 4.5000000000000009 1008.5543500495641 898.5532874204041 781.39118733466205 0.47140522875816998 2503.1236745302976 1677.9058981599744 0.6478537360890303 2.5000000000000004 1.5000000000000002 0.41042780748663105 0.39339826839826847
decision_type=2 2 2 2 2 2 2 2 2 2 2 2 2 2 2 2 2 2 2 2 2 2 2 2 2 2 2 2 2 2 2 2 2 2 2 2 2 2 2 2 2 2 2 2 2 2 2 2 2 2
left_child=2 3 5 7 8 13 10 15 17 21 20 27 16 31 37 41 39 30 26 32 -4 -8 -14 40 -12 45 -10 -5 -13 -16 42 -1 38 -20 48 49 -19 -6 -9 -7 -15 -2 -3 -28 -24 46 -11 -23 -21 -17
right_child=1 4 6 11 14 12 9 19 18 25 24 28 22 23 29 35 -18 36 33 34 -22 47 44 -25 -26 -27 43 -29 -30 -31 -32 -33 -34 -35 -36 -37 -38 -39 -40 -41 -42 -43 -44 -45 -46 -47 -48 -49 -50 -51
leaf_value=-0.011977948151625596 0.0031057243571458604 0.011896785155838502 -0.0027187880196442751 -0.00020478500460216882 0.0058751930622391035 -0.0065913780394271371 0.00039656525032113902 0.0075054898731925102 0.023522408097176942 -0.0036909321890052729 -0.0051313929248864958 0.0026576952744684868 -0.0079945336890722522 -0.0087073090018295659 0.0099162008698831343 0.005462517119740995 -0.0042573759646602699 0.015123408853819298 0.019878373697585733 0.0095249361499848608 -0.0011345404552461965 0.0014340733267657255 -0.0069609908240304223 -0.009554176357235003 -0.0037639468866602771 -0.0012873005792272017 0.016148875123428386 0.0012424076223005922 0.0041835659313072694 0.014275356864980363 0.011054395613601256 -0.010538508625937949 0.0069686257782328219 0.02286714879183117 0.0088416422491042045 0.004937726420096376 0.013497873432341257 0.0074064277120822284 0.0089787780149662624 -0.0056023097835482105 -0.0075824467791391782 0.0041038049217330284 0.013453048120914309 0.017708102104623921 -0.0060131099908102273 -0.001707784746927064 -0.0021966094006871883 0.0023926500679216558 0.011114855471145133 0.0067306688075830685
leaf_weight=4389 6453 3014 13419 6229 3289 6887 13291 3721 185 3187 10003 5086 9614 4920 1685 3485 13653 2847 2087 2169 13310 5898 6587 10038 10724 10492 2819 9561 7534 466 4762 5465 5895 614 3775 5676 2764 2993 3038 7957 6003 7295 2223 2090 5912 2329 2790 6018 1982 3008
leaf_count=4389 6453 3014 13419 6229 3289 6887 13291 3721 185 3187 10003 5086 9614 4920 1685 3485 13653 2847 2087 2169 13310 5898 6587 10038 10724 10492 2819 9561 7534 466 4762 5465 5895 614 3775 5676 2764 2993 3038 7957 6003 7295 2223 2090 5912 2329 2790 6018 1982 3008
internal_value=0 0.00703837 -0.0043457 0.00460943 0.0127531 -0.00737839 -0.00164579 0.00622921 0.0145772 -0.000164696 -0.00301918 0.00195843 -0.00605334 -0.00955464 0.00769027 0.00452551 -0.00519698 0.0127334 0.0182696 0.00837473 -0.00192989 0.00111588 -0.00715692 -0.00879072 -0.00442389 -0.00188187 0.0170564 0.000671504 0.00356862 0.0108606 0.0118416 -0.0111796 0.0076091 0.0205578 0.00959708 0.00553121 0.0143227 0.00660474 0.0081677 -0.0060612 -0.00808911 0.00363533 0.0125574 0.0168127 -0.00651265 -0.00263291 -0.0029934 0.00191819 0.0102841 0.00605001
internal_weight=0 106745 172886 74907 31838 81425 91461 46497 23405 44005 47456 28410 50610 30815 8433 25917 28497 15610 7795 20580 26729 25207 22113 20961 20727 18798 5094 15790 12620 2151 9999 9854 12654 2701 7926 12169 5611 6282 6759 14844 10923 13748 5237 4909 12499 8306 5977 11916 4151 6493
internal_count=279631 106745 172886 74907 31838 81425 91461 46497 23405 44005 47456 28410 50610 30815 8433 25917 28497 15610 7795 20580 26729 25207 22113 20961 20727 18798 5094 15790 12620 2151 9999 9854 12654 2701 7926 12169 5611 6282 6759 14844 10923 13748 5237 4909 12499 8306 5977 11916 4151 6493
is_linear=0
shrinkage=0.05


Tree=2
num_leaves=51
num_cat=0
split_feature=0 0 0 1 2 0 0 0 0 1 1 0 1 0 0 0 0 0 0 0 0 0 0 1 1 1 1 1 0 1 0 0 10 4 10 10 0 10 4 0 0 10 10 0 1 10 3 10 9 10
split_gain=3087.63 534.891 511.33 116.117 106.147 77.8773 74.8151 61.5616 57.635 38.5454 23.9744 21.2525 16.5339 11.4232 10.5219 9.59358 9.32919 8.4225 7.47531 6.51594 5.78116 5.10744 4.53309 4.1032 3.4481 3.14798 3.00154 2.86238 2.58102 2.36156 2.04844 1.97152 1.80096 1.62847 1.59323 1.56503 1.45991 1.41328 1.35049 1.3462 1.33343 1.32706 1.06657 1.03483 1.00771 0.992316 0.989885 1.14486 1.02862 0.988304
threshold=755.3515593304021 1007.5118299007487 571.97651765563876 2251.1234410074267 2.5000000000000004 471.21305960643878 654.32431632631881 858.45016876509555 1173.0767376433671 1957.9177137252361 1710.9654844822753 861.95849707912703 1408.6642937531353 414.64074193296955 1222.5833773881889 928.78428753650576 1289.0088005912796 520.31375749491201 698.85635485371711 1078.5099592134823 800.94442982758699 613.81734419944712 518.23358436394881 2099.0805765883247 1240.6405020553241 1828.8036808517843 2337.1340514624867 2423.1344677252664 920.13071123443217 2818.3175397299569 1104.0542682349771 1433.692583700579 0.90550595238095244 3.5000000000000004 0.93218390804597717 0.93440860215053767 381.95844621414966 0.92052631578947375 4.5000000000000009 733.03783481254891 547.80228560409705 0.913664596273292 0.90550595238095244 441.51958211472498 1651.652491240254 0.38585607940446659 25.500000000000004 0.73431372549019625 2.5000000000000004 0.43614130434782611
decision_type=2 2 2 2 2 2 2 2 2 2 2 2 2 2 2 2 2 2 2 2 2 2 2 2 2 2 2 2 2 2 2 2 2 2 2 2 2 2 2 2 2 2 2 2 2 2 2 2 2 2
left_child=2 3 5 7 8 13 10 20 19 18 21 27 17 36 30 33 26 -7 -8 34 42 -4 -14 -11 43 -12 -10 -5 -13 -18 -6 -16 38 -9 45 -21 -1 49 -17 -20 -19 -22 -2 -15 -24 -3 47 48 -25 -35
right_child=1 4 6 11 14 12 9 15 16 23 25 28 22 24 31 32 29 40 39 35 41 -23 44 46 -26 -27 -28 -29 -30 -31 -32 -33 -34 37 -36 -37 -38 -39 -40 -41 -42 -43 -44 -45 -46 -47 -48 -49 -50 -51
leaf_value=-0.011585852770094218 0.0037387136939771278 0.010821691252114721 -0.0028051007534313395 -0.00013581907545965152 0.005763458141593545 -0.0061031288955660755 2.1651449926355494e-05 0.0058673602917706028 0.022302023178624536 -0.0028210553621744951 -0.005241120030150594 0.0026557279947079793 -0.0077963362666502029 -0.0085507809033525482 0.010147516633259615 0.0085899344811153754 0.018232250097162089 -0.0048211742947087098 0.0012785652571406158 0.013761228524634373 0.0053462596000472132 -0.0013877804834708364 -0.0068112500916921205 -0.0024853313701587616 -0.00926628273694673 -0.0039420267153324291 0.015484878347730891 0.0012236428366497456 0.0040863401842103405 0.021067870825268942 0.0075459894593540439 0.014809027617121794 0.0081452541237672337 0.0070935919437142272 0.010192001673995574 0.012275666355633728 -0.010253114795728683 0.0064876805891142062 0.010138018413238553 0.0022519472694133864 -0.0038924551132804874 0.0042998799204865094 0.0027561640664001785 -0.0074936833563084854 -0.0059122190846923883 0.012395371260808367 -0.00034256528194719592 -0.00051226645667566055 -0.0013905891597886721 0.0085521322833534402
leaf_weight=3304 5788 1942 13036 6803 4206 12910 13295 3461 167 8062 7496 6141 9659 3831 1341 2574 2551 8020 9364 3680 6381 12405 6121 3484 9133 12340 4872 8987 6479 1031 2613 273 5132 2611 3672 3421 5435 4293 3112 5723 7460 5770 5283 5851 6351 2069 1933 2087 5586 2092
leaf_count=3304 5788 1942 13036 6803 4206 12910 13295 3461 167 8062 7496 6141 9659 3831 1341 2574 2551 8020 9364 3680 6381 12405 6121 3484 9133 12340 4872 8987 6479 1031 2613 273 5132 2611 3672 3421 5435 4293 3112 5723 7460 5770 5283 5851 6351 2069 1933 2087 5586 2092
internal_value=0 0.00668646 -0.00412842 0.00437896 0.0121154 -0.00712492 -0.00166086 0.00591775 0.0138484 -0.000318026 -0.00312995 0.00186051 -0.00595871 -0.00926319 0.00730576 0.00773501 0.0170976 -0.00516009 0.000886063 0.0119537 0.00409634 -0.00211402 -0.00698319 -0.00193369 -0.00856936 -0.00443295 0.0157108 0.000637929 0.00339019 0.0190484 0.00644651 0.010936 0.00882432 0.00678903 0.0109445 0.0130455 -0.010757 0.00714362 0.00943722 0.0016478 -0.00437361 0.00484938 0.00326985 -0.00791196 -0.00635344 0.0116334 -0.00138717 -0.00156815 -0.00181111 0.00774238
internal_weight=0 106745 172886 74907 31838 78075 94811 46497 23405 49534 45277 28410 50521 27554 8433 23275 8621 28390 28382 14784 23222 25441 22131 21152 18815 19836 5039 15790 12620 3582 6819 1614 10818 12457 7683 7101 8739 8996 5686 15087 15480 12151 11071 9682 12472 4011 13090 11157 9070 4703
internal_count=279631 106745 172886 74907 31838 78075 94811 46497 23405 49534 45277 28410 50521 27554 8433 23275 8621 28390 28382 14784 23222 25441 22131 21152 18815 19836 5039 15790 12620 3582 6819 1614 10818 12457 7683 7101 8739 8996 5686 15087 15480 12151 11071 9682 12472 4011 13090 11157 9070 4703
is_linear=0
shrinkage=0.05


Tree=3
num_leaves=51
num_cat=0
split_feature=0 0 0 2 1 0 0 0 0 1 1 0 1 0 0 0 0 0 0 0 0 0 0 0 1 3 1 3 1 0 10 10 0 1 1 10 10 0 9 0 4 10 3 9 10 10 0 4 10 9
split_gain=2786.9 498.918 445.298 102.309 101.331 67.4482 66.2618 57.8326 53.3396 34.3461 21.4037 18.8783 14.0261 10.5513 10.3095 8.47906 7.46825 7.04805 6.72786 6.65638 6.12172 4.64709 3.78133 3.64165 3.11191 2.94046 2.87122 2.76736 2.35227 2.29349 1.73771 1.72171 1.60684 1.46182 1.42722 1.41244 1.37585 1.31757 1.31205 1.27212 1.24464 1.20395 1.19791 1.17863 1.10755 1.10562 1.08473 1.07745 1.01684 1.0102
threshold=750.05186893448547 995.44446815408207 567.96562146599206 2.5000000000000004 2239.2341228651162 650.00108876836543 471.21305960643878 1173.0767376433671 858.45016876509555 1941.0300553547174 1697.8650502057942 851.91169544844706 1408.6642937531353 1187.5997340955021 414.64074193296955 1321.1033005038273 1078.5099592134823 916.44505744395212 518.23358436394881 692.36069680889545 798.01459575955221 605.82236088400703 690.31264847099226 515.84662348012159 1240.6405020553241 13.500000000000002 1820.9047752929355 24.500000000000004 2377.2264031740556 1364.7041533538422 0.90550595238095244 0.93218390804597717 1078.5099592134823 2469.2009762718558 2936.4214567341296 0.93440860215053767 0.38585607940446659 381.95844621414966 2.5000000000000004 721.40394354093883 3.5000000000000004 0.913664596273292 19.500000000000004 1.5000000000000002 0.65450928381962881 0.47140522875816998 541.78311006701699 3.5000000000000004 0.36899313501144165 2.5000000000000004
decision_type=2 2 2 2 2 2 2 2 2 2 2 2 2 2 2 2 2 2 2 2 2 2 2 2 2 2 2 2 2 2 2 2 2 2 2 2 2 2 2 2 2 2 2 2 2 2 2 2 2 2
left_child=2 4 6 7 8 10 14 16 20 19 21 28 18 32 37 25 31 41 -8 -7 47 -4 -11 -14 -16 -9 -12 38 -6 -15 36 45 49 -27 -17 -18 -19 -1 44 -21 -22 48 -24 -42 -13 -3 -20 -2 -10 -5
right_child=1 3 5 13 11 9 12 15 17 22 26 27 23 29 24 34 35 30 46 39 40 -23 42 -25 -26 33 -28 -29 -30 -31 -32 -33 -34 -35 -36 -37 -38 -39 -40 -41 43 -43 -44 -45 -46 -47 -48 -49 -50 -51
leaf_value=-0.011006559937804616 0.0024170416599084282 0.010243153024676327 -0.0028614323517122306 0.0045231476207240997 -0.00035282451632769025 -0.00014600264982495464 -0.0058396395259397551 0.021158362041466202 0.0060953710205225321 -0.0027317882393175699 -0.0050753097550372099 0.00060516346422151684 -0.0074420040373267401 0.0089544698987943771 -0.0075163606545804972 0.018020400187797343 0.013073167323499273 0.0079367328173028176 -0.0047252333062065589 0.00096369417251484244 0.0039057210475708874 -0.0015069334531945949 -0.0018591824653721068 -0.0061179470536766893 -0.0088029683919085677 0.01420943797314499 -0.0038446422131117979 0.0035913060106550405 0.00092128821645398563 0.012917668716942035 0.0074176481395990179 0.0095211008226933694 0.0066861134222461031 0.015809353652824886 0.020993524632955854 0.011661883030229409 0.0094501118436874157 -0.0097404589621211384 0.0030523270727035798 0.0018639451562234147 0.0043482355172624106 0.0056810717698399672 -0.00086941797369249505 0.0055446552510036761 0.0025859184422412588 0.01178954809549309 -0.0038669273206184194 0.0033911210510330376 0.0074387261168691755 0.0061513884802070987
leaf_weight=3304 4889 2748 11868 2454 5795 12642 12299 199 2837 8968 7817 1730 9176 1685 9682 2207 3680 3176 6765 8191 4589 13576 6319 11964 9133 2981 12038 8126 9663 466 5407 4409 2993 2740 494 3421 2849 5435 2097 7533 4210 4739 5922 4028 1192 1995 8075 6770 2798 1557
leaf_count=3304 4889 2748 11868 2454 5795 12642 12299 199 2837 8968 7817 1730 9176 1685 9682 2207 3680 3176 6765 8191 4589 13576 6319 11964 9133 2981 12038 8126 9663 466 5407 4409 2993 2740 494 3421 2849 5435 2097 7533 4210 4739 5922 4028 1192 1995 8075 6770 2798 1557
internal_value=0 0.00624887 -0.00398725 0.0112691 0.00396789 -0.00170415 -0.00684362 0.0129324 0.00541356 -0.000429785 -0.00309881 0.00162818 -0.00572705 0.00675008 -0.00880003 0.0162427 0.0111765 0.00721207 -0.00497488 0.000708205 0.0038119 -0.00213872 -0.00195179 -0.00669267 -0.00814089 0.0151835 -0.00432916 0.00302115 0.00044364 0.00981307 0.00806837 0.0102324 0.0058094 0.0149757 0.0185642 0.0123933 0.00865235 -0.0102191 0.00209804 0.00139498 0.00456563 0.00626843 -0.00138035 0.00493323 0.00141319 0.0108936 -0.0042582 0.00298266 0.0067624 0.0051552
internal_weight=0 108924 170707 34029 74895 94874 75833 24874 46292 49575 45299 28603 48279 9155 27554 8621 16253 21806 27139 28366 24486 25444 21209 21140 18815 5920 19855 13145 15458 2151 11432 9152 7004 5721 2701 7101 6025 8739 5019 15724 12827 10374 12241 8238 2922 4743 14840 11659 5635 4011
internal_count=279631 108924 170707 34029 74895 94874 75833 24874 46292 49575 45299 28603 48279 9155 27554 8621 16253 21806 27139 28366 24486 25444 21209 21140 18815 5920 19855 13145 15458 2151 11432 9152 7004 5721 2701 7101 6025 8739 5019 15724 12827 10374 12241 8238 2922 4743 14840 11659 5635 4011
is_linear=0
shrinkage=0.05


Tree=4
num_leaves=51
num_cat=0
split_feature=0 0 0 1 2 0 0 0 0 1 1 0 1 0 0 0 0 0 0 1 1 0 1 1 1 1 1 3 0 0 0 4 10 0 9 10 10 9 10 4 10 4 0 10 10 9 9 4 10 9
split_gain=2515.87 432.469 421.664 92.4318 86.4587 71.6373 57.4291 47.0957 46.7013 29.0528 22.1321 16.056 13.8273 13.6575 8.63296 8.19504 6.05976 5.8763 5.81174 5.42509 5.37277 4.38888 3.5948 3.09573 3.0931 2.54635 2.26934 2.23655 2.1428 2.04589 1.6873 1.65509 1.64696 1.64559 1.56238 2.32453 1.34845 1.28182 1.1982 1.17521 1.13515 1.05213 1.03429 1.01913 1.01555 1.14392 0.94326 0.936777 0.907824 0.991699
threshold=760.373837362372 579.97247047427209 1007.5118299007487 2275.0720736400158 2.5000000000000004 486.27124121777877 668.84545581684722 1203.0768547389173 872.92399865907191 2001.0640350640863 1730.9070208596752 865.45763568221207 1453.6202201032145 427.24915761725208 1222.5833773881889 1104.0542682349771 818.89450838190703 952.21519948873902 535.58625115744871 1251.6307572680143 2692.3630167879473 719.33492945964201 1273.6870778030454 1901.8677697110745 1613.7989820216142 2147.5229878825721 1390.6758529546753 22.500000000000004 398.64113929865454 942.80558483579864 1124.0910823067372 3.5000000000000004 0.93218390804597717 1433.692583700579 2.5000000000000004 0.65450928381962881 0.93440860215053767 1.5000000000000002 0.90550595238095244 5.5000000000000009 0.90121951219512209 4.5000000000000009 457.23125236079869 0.45080645161290328 0.6478537360890303 2.5000000000000004 1.5000000000000002 5.5000000000000009 0.57359307359307377 2.5000000000000004
decision_type=2 2 2 2 2 2 2 2 2 2 2 2 2 2 2 2 2 2 2 2 2 2 2 2 2 2 2 2 2 2 2 2 2 2 2 2 2 2 2 2 2 2 2 2 2 2 2 2 2 2
left_child=1 5 3 8 7 13 10 15 16 21 19 27 18 28 30 32 38 31 -7 -3 26 46 42 48 -14 44 -9 34 -1 -13 -6 -10 39 -16 35 -5 43 -33 -2 -4 -19 -18 -15 -17 45 -11 -8 -28 49 -12
right_child=2 6 4 11 14 12 9 20 17 25 23 29 24 22 33 36 41 40 -20 -21 -22 -23 -24 -25 -26 -27 47 -29 -30 -31 -32 37 -34 -35 -36 -37 -38 -39 -40 -41 -42 -43 -44 -45 -46 -47 -48 -49 -50 -51
leaf_value=-0.010130121549026472 0.0037053573078839825 -0.0022253564581527908 0.01011753018834198 -0.0012491019221007454 0.0053079381917051499 -0.0050479330883910767 0.00012814658820873353 0.01992434447867121 0.0056324209093767119 -0.0031775748808165723 -0.0051764830855194595 0.0026036819688680327 -0.0067015378662289397 -0.0072395834291549069 0.0091638977891480098 0.012375706221434501 0.004435804042024899 0.0089335217865195767 -0.0035893017254297402 -0.0008150151746713028 0.018134649494282847 0.0018629702541649166 -0.0079881785379706874 -0.003115769795512474 -0.0054834080070772367 -0.00099066444111908249 0.013858463342072703 0.0013617149638289255 -0.0087931683132677282 0.0039417765192278206 0.0070312421132982961 0.0063164190814886502 0.0094676728063473829 0.013422693492292049 0.00098117662325764693 0.00089842009617624159 0.011702140717013169 0.0074560542700363693 0.0027696194455720459 0.011636013491546998 0.0076762548519137041 0.0054382865448262992 -0.0062904960992946476 0.014171411463165043 -0.001279518782413982 -0.0017720872396514915 0.00093517965572930328 0.015332845131941908 -0.003619926029832641 -0.0040139126433695873
leaf_weight=5506 7158 14584 3047 3171 4802 13630 7276 229 3507 3086 3908 7608 9317 5123 1341 1824 6528 3784 13686 12806 1985 10758 10352 10593 11826 10660 1636 6674 6577 4574 2017 4844 4762 273 3386 2091 3183 5029 6553 2190 3416 4369 6529 1394 2313 2727 7207 3155 3180 3457
leaf_count=5506 7158 14584 3047 3171 4802 13630 7276 229 3507 3086 3908 7608 9317 5123 1341 1824 6528 3784 13686 12806 1985 10758 10352 10593 11826 10660 1636 6674 6577 4574 2017 4844 4762 273 3386 2091 3183 5029 6553 2190 3416 4369 6529 1394 2313 2727 7207 3155 3180 3457
internal_value=0 -0.00366435 0.00613826 0.0040366 0.0109367 -0.00629556 -0.00131769 0.0125007 0.00542759 -1.00942e-05 -0.002504 0.00175126 -0.00506019 -0.0080518 0.00659598 0.0110349 0.00395762 0.00718526 -0.00431712 -0.00156596 0.0159326 0.00109798 -0.00731016 -0.00371949 -0.0060202 -0.00149891 0.0150618 0.000674066 -0.00940239 0.0031061 0.00581768 0.00656548 0.0101406 0.00988425 0.000143381 -0.000395725 0.0124318 0.00689691 0.00325813 0.0107525 0.00833702 0.00483774 -0.00670778 0.0131536 -0.00216564 -0.00251823 0.000529741 0.0148294 -0.00432595 -0.00463079
internal_weight=0 175101 104530 72692 31838 82546 92555 23405 45188 44027 48528 27504 48459 34087 8433 16400 24608 20580 27316 27390 7005 25241 22004 21138 21143 18786 5020 15322 12083 12182 6819 13380 9999 1614 8648 5262 6401 9873 13711 5237 7200 10897 11652 3218 8126 5813 14483 4791 10545 7365
internal_count=279631 175101 104530 72692 31838 82546 92555 23405 45188 44027 48528 27504 48459 34087 8433 16400 24608 20580 27316 27390 7005 25241 22004 21138 21143 18786 5020 15322 12083 12182 6819 13380 9999 1614 8648 5262 6401 9873 13711 5237 7200 10897 11652 3218 8126 5813 14483 4791 10545 7365
is_linear=0
shrinkage=0.05


Tree=5
num_leaves=51
num_cat=0
split_feature=0 0 0 1 0 2 0 0 0 1 1 1 0 0 0 0 0 0 0 1 1 0 0 1 1 1 1 1 1 10 4 0 3 9 10 0 10 10 10 9 0 10 10 9 10 1 10 10 9 4
split_gain=2271.84 426.366 348.333 84.243 75.857 70.7428 50.4631 42.087 35.8753 26.343 21.9719 14.4045 13.4527 13.0101 6.87291 6.76625 5.60269 5.56653 5.2943 5.11456 4.84892 3.60327 3.54452 3.51302 2.86812 2.61224 2.04808 1.979 1.94598 1.54578 1.54242 1.48514 1.28327 1.47393 1.14381 1.12156 1.11976 1.10939 1.10624 1.0798 1.05633 1.0171 1.01225 1.35973 0.969457 0.949273 0.937751 0.920622 2.20391 0.916597
threshold=773.3327466365821 592.26283036141206 1027.0057469844974 2311.1327031133555 488.71890150328699 2.5000000000000004 683.80975018444701 887.94124131670708 1203.0768547389173 2045.0816449749952 1771.8873108145651 1458.8214631008752 895.46853471908219 427.24915761725208 541.78311006701699 1222.5833773881889 835.12391301254218 961.9848145785071 1124.0910823067372 1268.6169496378952 2692.3630167879473 539.63895718885544 733.03783481254891 1273.6870778030454 1909.9731486135049 2519.2547660210666 1390.6758529546753 859.48262794067398 2207.0293116104267 0.9104278074866311 4.5000000000000009 1433.692583700579 26.500000000000004 2.5000000000000004 0.90121951219512209 1124.0910823067372 0.90550595238095244 0.913664596273292 0.67054263565891481 1.5000000000000002 457.23125236079869 0.44590643274853808 0.6478537360890303 2.5000000000000004 0.39339826839826847 1022.5647778423951 0.93440860215053767 0.70659971305595415 2.5000000000000004 2.5000000000000004
decision_type=2 2 2 2 2 2 2 2 2 2 2 2 2 2 2 2 2 2 2 2 2 2 2 2 2 2 2 2 2 2 2 2 2 2 2 2 2 2 2 2 2 2 2 2 2 2 2 2 2 2
left_child=1 4 3 7 13 8 10 16 18 22 19 14 25 27 45 35 36 30 29 -3 26 -13 49 40 -12 47 -10 -1 42 41 -9 -17 33 38 -19 -7 44 -18 -14 -32 -15 -4 43 -11 -2 -6 -20 48 -5 -8
right_child=2 6 5 12 11 15 9 17 20 28 24 21 32 23 -16 31 37 34 46 -21 -22 -23 -24 -25 -26 -27 -28 -29 -30 -31 39 -33 -34 -35 -36 -37 -38 -39 -40 -41 -42 -43 -44 -45 -46 -47 -48 -49 -50 -51
leaf_value=-0.0079913392145302686 0.003377969911535713 -0.0017973569635572192 0.010050041768596977 -0.00083599081948980761 -0.0051255826371768582 0.0052183610089369878 0.00016474328850406807 0.0059715864632526325 0.018928127325908588 -0.0026878687520190186 -0.0039208681095502813 -0.0062018334050001787 0.0014111579396620302 -0.0068776042432773868 -0.0031652092027576028 0.0087057028496380969 0.005493110752205984 0.0088088556081511431 0.012816526605267537 -0.00044752190457341318 0.017227916816995488 -0.0049651409904429419 0.0021319499519257446 -0.0075647469225153131 -0.0027432056433758373 0.0016763795627071549 0.014087913431922347 -0.0093674355579476554 -0.00060046840028058325 0.0094086891264413258 0.0064636553251912815 0.012751558603166225 0.0040152916214413912 0.003924220030348576 0.0076086419034847464 0.0066796800539781868 0.0030044726548040072 0.0044492465339890036 0.0032758941054919152 0.0077951940697704811 -0.0059374718911647554 0.011507889141109626 -0.00079424517268140982 -0.0012094723486891054 0.0045334533877180345 -0.0043190234763042928 0.011418916910701658 0.0013043085614870423 0.0011339714416868296 0.0011280767542912939
leaf_weight=3821 4011 13497 2715 3049 6448 3762 3225 5927 229 3281 8689 11095 1852 5123 15549 1341 5545 4259 2386 14618 1985 12555 10208 10818 12766 8537 4791 8262 9049 4536 3165 273 4618 2051 3718 2017 6641 4705 1394 2934 7169 2139 2488 2957 3316 8401 2415 2107 2657 10537
leaf_count=3821 4011 13497 2715 3049 6448 3762 3225 5927 229 3281 8689 11095 1852 5123 15549 1341 5545 4259 2386 14618 1985 12555 10208 10818 12766 8537 4791 8262 9049 4536 3165 273 4618 2051 3718 2017 6641 4705 1394 2934 7169 2139 2488 2957 3316 8401 2415 2107 2657 10537
internal_value=0 -0.00333843 0.00608401 0.00419587 -0.00579622 0.0107392 -0.000936464 0.00552805 0.0122081 0.000344371 -0.00201511 -0.0046199 0.00195297 -0.00760276 -0.00389992 0.00652778 0.00412617 0.00722532 0.0107629 -0.00109553 0.0151359 -0.00554531 0.00142598 -0.00690762 -0.00322014 0.00107177 0.0143087 -0.00893227 -0.00111421 0.0100723 0.006546 0.00939004 0.00340608 0.00287495 0.00824945 0.00572839 0.0034747 0.00501395 0.00221197 0.00710421 -0.0063293 0.0106925 -0.00164696 -0.00198706 0.00390091 -0.00466926 0.0121135 0.000411136 8.13225e-05 0.000902328
internal_weight=0 180556 99075 70486 89241 28589 91315 44221 21196 41745 49570 54048 26265 35193 30398 7393 24218 20003 14191 28115 7005 23650 23970 23110 21455 16350 5020 12083 17775 9390 12026 1614 9915 5297 7977 5779 13968 10250 3246 6099 12292 4854 8726 6238 7327 14849 4801 7813 5706 13762
internal_count=279631 180556 99075 70486 89241 28589 91315 44221 21196 41745 49570 54048 26265 35193 30398 7393 24218 20003 14191 28115 7005 23650 23970 23110 21455 16350 5020 12083 17775 9390 12026 1614 9915 5297 7977 5779 13968 10250 3246 6099 12292 4854 8726 6238 7327 14849 4801 7813 5706 13762
is_linear=0
shrinkage=0.05


Tree=6
num_leaves=51
num_cat=0
split_feature=0 0 0 1 2 0 0 0 0 1 1 1 0 0 0 0 0 0 1 0 0 1 1 0 3 0 1 3 3 1 3 0 9 10 4 4 9 10 0 10 4 4 4 9 1 10 10 9 1 10
split_gain=2050.41 378.229 320.266 71.3277 70.3738 66.7167 45.4376 38.4825 32.7956 22.8886 20.2645 12.7456 11.7635 10.9348 7.54413 7.06383 5.88183 4.94841 4.91721 3.68453 3.60359 3.11958 2.91877 2.91767 2.86683 2.52045 2.34529 1.82194 1.78453 1.69985 1.58359 1.52755 1.32271 1.28165 1.18482 1.15564 1.13642 1.6582 1.12395 1.06333 1.03765 1.03698 1.00277 1.00094 0.96328 0.955403 0.895299 0.891424 0.856719 0.837563
threshold=770.6416952900895 589.97730241246552 1007.5118299007487 2299.1146759378844 2.5000000000000004 488.71890150328699 683.80975018444701 1159.2799263297591 883.9724472351171 2045.0816449749952 1764.9248019396464 1458.8214631008752 434.74107119872707 865.45763568221207 1289.0088005912796 1203.0768547389173 541.78311006701699 828.44638242267558 1268.6169496378952 952.21519948873902 1070.0586822807675 1619.7821490198942 1296.6554433215954 728.36581536889219 16.500000000000004 398.64113929865454 2311.1327031133555 25.500000000000004 19.500000000000004 2818.3175397299569 22.500000000000004 1433.692583700579 2.5000000000000004 0.67054263565891481 3.5000000000000004 5.5000000000000009 2.5000000000000004 0.65450928381962881 1104.0542682349771 0.913664596273292 3.5000000000000004 4.5000000000000009 4.5000000000000009 1.5000000000000002 1188.6365996124644 0.92052631578947375 0.89564428312159727 1.5000000000000002 1022.5647778423951 0.39339826839826847
decision_type=2 2 2 2 2 2 2 2 2 2 2 2 2 2 2 2 2 2 2 2 2 2 2 2 2 2 2 2 2 2 2 2 2 2 2 2 2 2 2 2 2 2 2 2 2 2 2 2 2 2
left_child=1 5 3 8 7 12 10 20 17 23 18 16 25 30 26 38 48 40 -3 34 41 -13 -14 -8 -12 -1 -9 32 -11 -16 36 -17 33 -15 -10 -22 37 -5 -6 49 -2 -4 -21 -28 -27 -36 -25 -43 -7 -19
right_child=2 6 4 13 15 11 9 14 19 28 24 21 22 27 29 31 -18 39 -20 42 35 -23 -24 46 -26 44 43 -29 -30 -31 -32 -33 -34 -35 45 -37 -38 -39 -40 -41 -42 47 -44 -45 -46 -47 -48 -49 -50 -51
leaf_value=-0.0091674154518118691 0.0026364605233403574 -0.0017345471833543008 0.0079431618971938494 -0.0010448041933383079 0.004691787154145222 -0.0048693035303179711 0.00080206683524639401 0.018216822080599156 0.0052070895985423492 -0.0016157690731028861 -0.0038435352090333574 -0.0060022613453147612 -0.0059161995876393248 0.00077170356077907497 0.014868337255203458 0.008069159857717615 -0.0030314196197411196 0.0045218588745619733 -0.00042514581546025296 0.0068263862887506027 0.0097545494521669163 -0.0048179168115088187 -0.0071004385110050167 0.0023645432373796856 -0.0026552114330824195 -0.0072246235118186139 0.011852863407716638 0.00340056569744195 -0.00059869250799846996 0.017274100738139436 0.001328245351179716 0.012113980656905925 0.0030962669899572389 0.0026953009476690915 0.0068987834387418973 0.011031402871543706 0.0010077622105162031 0.00094289474056787287 0.0060581030128923265 0.0040982855568313745 0.0035448381131725618 0.0085404809557807822 0.0080232120970954758 0.013187899727352782 -0.0082774910881716311 0.0058298136693961033 0.0014558029823274307 0.0099359182008695521 -0.0041030722190821631 0.005717785137371382
leaf_weight=5506 5134 14072 2314 2676 4206 6448 12490 183 2908 8128 7948 9310 11182 2087 2551 1610 14974 3094 14618 3001 3446 13804 9731 5577 14043 3957 3059 6258 9188 1031 6188 273 2357 1480 4296 3648 2912 1726 2344 5050 8110 2277 4199 2595 4817 4071 5273 2301 8401 2779
leaf_count=5506 5134 14072 2314 2676 4206 6448 12490 183 2908 8128 7948 9310 11182 2087 2551 1610 14974 3094 14618 3001 3446 13804 9731 5577 14043 3957 3059 6258 9188 1031 6188 273 2357 1480 4296 3648 2912 1726 2344 5050 8110 2277 4199 2595 4817 4071 5273 2301 8401 2779
internal_value=0 -0.00319861 0.00573104 0.00380108 0.00987285 -0.00553538 -0.000943882 0.0112839 0.00505485 0.000301249 -0.00194272 -0.00441368 -0.00722262 0.0017195 0.0137544 0.00595664 -0.00373067 0.00384247 -0.00106739 0.00664076 0.00962008 -0.00529495 -0.00646724 0.00132311 -0.0030847 -0.00832887 0.0126459 0.00280563 -0.0010761 0.0155608 0.000739544 0.00865558 0.00217716 0.00156983 0.0060765 0.0104112 0.000241474 -0.000265438 0.00518074 0.00463029 0.00319271 0.00880582 0.00752437 0.0124656 -0.00780266 0.00637867 0.0019229 0.00924186 -0.0044358 0.00508775
internal_weight=0 179467 100164 68326 31838 88130 91337 23405 42642 40656 50681 52937 35193 25684 9419 8433 29823 24167 28690 18475 13986 23114 20913 23340 21991 14280 5837 12182 17316 3582 13502 1883 5924 3567 11275 7094 7314 4402 6550 10923 13244 6892 7200 5654 8774 8367 10850 4578 14849 5873
internal_count=279631 179467 100164 68326 31838 88130 91337 23405 42642 40656 50681 52937 35193 25684 9419 8433 29823 24167 28690 18475 13986 23114 20913 23340 21991 14280 5837 12182 17316 3582 13502 1883 5924 3567 11275 7094 7314 4402 6550 10923 13244 6892 7200 5654 8774 8367 10850 4578 14849 5873
is_linear=0
shrinkage=0.05


Tree=7
num_leaves=51
num_cat=0
split_feature=0 0 0 2 1 0 0 0 0 1 1 0 1 0 0 0 0 0 1 0 0 0 1 1 1 1 3 1 0 1 0 4 9 3 10 4 4 4 10 9 9 9 6 4 9 10 9 10 9 10
split_gain=1851.02 332.038 296.956 73.5356 62.3717 47.9328 44.7552 41.9209 30.0713 22.7553 14.8411 10.7009 8.92976 7.90655 6.80858 5.99199 5.95333 4.5002 4.46875 4.09071 3.56229 3.51362 2.62778 2.57701 2.26091 2.11663 2.102 1.98795 1.64261 1.53713 1.44448 1.30757 1.2912 1.28223 1.18403 1.17062 1.15963 1.07753 1.04527 1.04387 1.01871 0.988655 0.974547 0.948104 0.940924 0.915357 0.897462 0.844074 0.828183 1.42001
threshold=750.05186893448547 977.9268823093272 563.95790788497868 2.5000000000000004 2239.2341228651162 650.00108876836543 1159.2799263297591 465.25684438145873 851.91169544844706 1941.0300553547174 1684.8870457418352 838.67050112781965 1390.6758529546753 1187.5997340955021 1289.0088005912796 1054.4749595559522 409.24659116524867 698.85635485371711 1022.5647778423951 911.950011882387 789.71738991915538 605.82236088400703 1528.8269424041353 2080.9167792779376 1813.8324983603854 2311.1327031133555 24.500000000000004 1222.6315142320243 1321.1033005038273 2790.319728588885 1061.8284994139024 5.5000000000000009 2.5000000000000004 21.500000000000004 0.6198686371100165 3.5000000000000004 4.5000000000000009 4.5000000000000009 0.90550595238095244 1.5000000000000002 1.5000000000000002 1.5000000000000002 1.5000000000000002 5.5000000000000009 2.5000000000000004 0.39339826839826847 1.5000000000000002 0.41042780748663105 2.5000000000000004 0.6478537360890303
decision_type=2 2 2 2 2 2 2 2 2 2 2 2 2 2 2 2 2 2 2 2 2 2 2 2 2 2 2 2 2 2 2 2 2 2 2 2 2 2 2 2 2 2 2 2 2 2 2 2 2 2
left_child=2 4 7 6 8 10 15 16 20 17 21 33 18 30 25 36 -1 -7 -9 37 -2 -4 -14 -11 -12 -8 32 -18 -15 -16 44 -17 34 48 -13 -21 -3 -10 45 -38 -37 -19 -28 -27 -5 -22 -33 -42 49 -6
right_child=1 3 5 13 11 9 14 12 19 23 24 26 22 28 29 31 27 41 -20 35 38 -23 -24 -25 -26 43 42 -29 -30 -31 -32 46 -34 -35 -36 40 39 -39 -40 -41 47 -43 -44 -45 -46 -47 -48 -49 -50 -51
leaf_value=-0.0084612076489491116 0.0022862065394357129 0.0071398431158732111 -0.0023716383458713057 0.0034224328763829237 -0.0014744287341891399 -3.3490289419655037e-05 0.017305980219195286 -0.0049059227370711039 0.0045221850735600345 -0.0023102767770427344 -0.0042227787584305223 0.00012478563605715977 -0.0062981628389116896 0.0070932693098649585 0.014046202311400927 0.009115236249436864 -0.0062634897934164997 0.00079723444994300751 -0.0036118474090130401 0.0053828721553939932 0.0034368939508059543 -0.0012244524661182332 -0.00513597332875228 -0.0011660174601571831 -0.003153589144519426 0.011017912198298499 0.0034722658650617058 -0.0073241766830424828 0.010090571230387653 0.016239297127386778 0.0053450024074883232 0.009642422473358692 0.0024010754276942146 0.00071309852926090378 0.0019326857398077307 0.0060794342749660064 0.0076312979206416085 0.0055145600955722723 0.0030796146825628847 0.0089884755338558962 0.0065529179374270346 0.0016430386612123549 0.0023122592941157202 0.012350828653749549 0.0049028087839669172 0.0045760172735097261 0.011075554531617245 0.0080313700499599246 0.00042342394097517335 0.00045500904415770959
leaf_weight=7623 9649 3274 13130 2732 2410 14543 183 11881 6057 7759 8097 2024 7541 1492 2379 4313 8908 6808 15214 2317 3824 13576 13700 13450 12699 2157 3021 8763 659 1203 3627 2237 2538 7054 1639 3764 2785 4988 6361 2884 2097 7015 4519 3497 1768 3273 2135 1789 2697 1578
leaf_count=7623 9649 3274 13130 2732 2410 14543 183 11881 6057 7759 8097 2024 7541 1492 2379 4313 8908 6808 15214 2317 3824 13576 13700 13450 12699 2157 3021 8763 659 1203 3627 2237 2538 7054 1639 3764 2785 4988 6361 2884 2097 7015 4519 3497 1768 3273 2135 1789 2697 1578
internal_value=0 0.00509269 -0.00324952 0.00891614 0.0030995 -0.00143334 0.0102842 -0.00564406 0.00426418 -0.000345778 -0.00256836 0.00122961 -0.00478102 0.00531596 0.0130667 0.00879749 -0.0072933 0.000580499 -0.00417929 0.00563308 0.00301939 -0.00178847 -0.00554857 -0.00158463 -0.00356988 0.0120136 0.00221621 -0.00678948 0.00801155 0.0147827 0.00460251 0.00973292 0.0015343 0.000242871 0.000933726 0.00636748 0.00788905 0.00497035 0.00354506 0.00832174 0.0066657 0.00122647 0.00277703 0.0118423 0.00400406 0.00396224 0.0103423 0.00723355 -0.000253313 -0.000710975
internal_weight=0 108924 170707 37325 71599 97077 27047 73630 44119 49575 47502 27480 48336 10278 9419 17628 25294 28366 27095 21012 23107 26706 21241 21209 20796 5837 13741 17671 2151 3582 8127 8685 6201 13739 3663 9967 8943 11045 13458 5669 7650 13823 7540 5654 4500 7097 4372 3886 6685 3988
internal_count=279631 108924 170707 37325 71599 97077 27047 73630 44119 49575 47502 27480 48336 10278 9419 17628 25294 28366 27095 21012 23107 26706 21241 21209 20796 5837 13741 17671 2151 3582 8127 8685 6201 13739 3663 9967 8943 11045 13458 5669 7650 13823 7540 5654 4500 7097 4372 3886 6685 3988
is_linear=0
shrinkage=0.05


Tree=8
num_leaves=51
num_cat=0
split_feature=0 0 0 1 0 2 0 0 0 1 1 0 0 1 0 0 0 1 0 0 0 1 1 0 1 3 3 3 1 10 0 4 4 4 9 10 10 4 9 10 5 9 1 10 10 4 10 9 4 9
split_gain=1671.16 313.749 256.625 61.7817 56.0481 51.997 37.1076 31.0492 26.6942 20.9389 14.7563 11.934 10.0951 9.88419 5.01372 5.00952 4.95218 3.88475 3.34616 3.19461 3.05305 2.96023 2.87027 2.31779 2.15061 2.02395 1.95485 1.86166 1.29508 1.27225 1.13351 1.08021 1.06122 1.05751 1.0468 1.35501 1.03003 0.993397 0.97825 0.938641 0.931466 0.942326 0.928828 0.910144 0.909103 0.896816 0.886357 0.852639 0.846879 0.835838
threshold=773.3327466365821 592.26283036141206 1027.0057469844974 2311.1327031133555 498.23485570905876 2.5000000000000004 677.32896724147201 895.46853471908219 1222.5833773881889 2027.995243810725 1771.8873108145651 438.20086738384214 895.46853471908219 1487.7388556757253 1222.5833773881889 1124.0910823067372 835.12391301254218 1098.5186555871444 961.9848145785071 726.03325916382551 633.83839370098701 1307.6734391145453 2739.3600366868154 398.64113929865454 1651.652491240254 16.500000000000004 22.500000000000004 19.500000000000004 1379.8125525987941 0.9104278074866311 1433.692583700579 7.5000000000000009 4.5000000000000009 3.5000000000000004 2.5000000000000004 0.67054263565891481 0.92052631578947375 3.5000000000000004 2.5000000000000004 0.90121951219512209 9.5000000000000018 2.5000000000000004 1188.6365996124644 0.44590643274853808 0.25265957446808512 3.5000000000000004 0.45080645161290328 1.5000000000000002 9.5000000000000018 1.5000000000000002
decision_type=2 2 2 2 2 2 2 2 2 2 2 2 2 2 2 2 2 2 2 2 2 2 2 2 2 2 2 2 2 2 2 2 2 2 2 2 2 2 2 2 2 2 2 2 2 2 2 2 2 2
left_child=1 4 3 7 11 8 10 16 15 19 20 23 26 17 38 29 37 -6 32 -8 -3 -13 28 -1 -15 -12 34 -11 -10 43 -16 40 -9 -18 35 -5 46 -2 48 -20 41 -14 -25 -4 -40 -21 -17 -35 -7 -39
right_child=2 6 5 12 13 14 9 18 22 27 25 21 31 24 30 36 33 -19 39 45 -22 -23 -24 42 -26 -27 -28 -29 -30 -31 -32 -33 -34 47 -36 -37 -38 49 44 -41 -42 -43 -44 -45 -46 -47 -48 -49 -50 -51
leaf_value=-0.0082859842011301123 0.0024406319216430869 -0.0015581767091353265 0.008587568199766275 -0.00085565125119267118 -0.003783865159475157 0.0039577506765353801 0.00062868895957291654 0.0051999077097519266 0.016628430405670268 -0.0015416691030472919 -0.0034698323487039914 -0.0051737613556931466 0.0017336861730796978 -0.0052104794939072628 0.0074691583575341586 0.01042481876097278 0.0036557050794810311 -0.0026021013165769442 0.0075744213036060982 0.0012737057944782325 -0.00047976116457699894 -0.0062825007020960201 0.015098739122316233 -0.0064764608121748793 -0.0042085617150311146 -0.002431083349274226 0.0014167454542339311 -0.00055734932466912866 0.012443016737957524 0.0080306093015492849 0.011003752762363071 0.0035337898362227463 0.0062001288474926889 0.0041553204802769949 0.0010307906160453234 0.00094331238742737563 0.0098446537239987517 0.0028311315352880255 0.0046496351098543982 0.0064871671239105505 0.0047000252424810457 0.0031033524649114151 -0.0074504619715667526 0.0099666330753509936 0.0068202672491059439 0.0021398803810544916 0.012215703462145681 0.0051833529691691681 0.0055691398801080106 0.0038171924895703899
leaf_weight=5506 5362 13117 2715 2750 14842 2659 13794 5176 193 9251 7515 13103 3070 9619 1341 1614 3584 13085 4259 5512 13135 11137 1571 4507 12085 12472 8848 9992 4363 4536 273 4284 5438 3895 3062 1690 2857 4447 888 3718 436 2125 5357 2139 1056 6527 1208 4183 1176 4159
leaf_count=5506 5362 13117 2715 2750 14842 2659 13794 5176 193 9251 7515 13103 3070 9619 1341 1614 3584 13085 4259 5512 13135 11137 1571 4507 12085 12472 8848 9992 4363 4536 273 4284 5438 3895 3062 1690 2857 4447 888 3718 436 2125 5357 2139 1056 6527 1208 4183 1176 4159
internal_value=0 -0.00286327 0.00521807 0.00359744 -0.00497163 0.00921374 -0.000802801 0.00473827 0.0104731 0.000218049 -0.00179797 -0.00637425 0.00167667 -0.0038522 0.00560317 0.00934164 0.00360989 -0.00323016 0.00629389 0.00114814 -0.0010186 -0.00568317 0.0132558 -0.00746416 -0.0046526 -0.00282165 0.000913321 -0.00103056 0.0126203 0.00863266 0.00806702 0.00293545 0.00571236 0.00437052 0.000319573 -0.000170911 0.0105139 0.00297483 0.00491505 0.00706766 0.00248024 0.00229394 -0.00700543 0.00919528 0.00582874 0.00174331 0.0111914 0.00468766 0.00445188 0.00330766
internal_weight=0 180556 99075 70486 89241 28589 91315 44221 21196 45076 46239 39610 26265 49631 7393 15069 25630 27927 18591 25833 26252 24240 6127 15370 21704 19987 16350 19243 4556 9390 1614 9915 10614 11662 7502 4440 5679 13968 5779 7977 5631 5195 9864 4854 1944 12039 2822 8078 3835 8606
internal_count=279631 180556 99075 70486 89241 28589 91315 44221 21196 45076 46239 39610 26265 49631 7393 15069 25630 27927 18591 25833 26252 24240 6127 15370 21704 19987 16350 19243 4556 9390 1614 9915 10614 11662 7502 4440 5679 13968 5779 7977 5631 5195 9864 4854 1944 12039 2822 8078 3835 8606
is_linear=0
shrinkage=0.05


Tree=9
num_leaves=51
num_cat=0
split_feature=0 0 0 2 1 0 0 0 0 1 1 0 1 0 0 0 0 0 0 0 0 1 1 1 3 1 1 3 0 1 0 4 9 10 10 10 1 4 9 10 9 4 10 9 9 9 9 10 4 4
split_gain=1508.63 275.305 237.863 59.7011 51.5413 37.862 36.5731 34.478 25.3478 19.3843 10.8734 9.1356 7.42186 6.47161 5.6228 4.94272 4.49733 4.29398 3.88812 3.34654 3.14263 2.47637 2.29881 2.09543 1.86918 1.7902 1.65844 1.49162 1.3632 1.30609 1.18558 1.17214 1.15939 1.15053 1.09765 1.09622 1.06789 1.04985 0.990031 0.961762 0.929156 0.870241 0.856508 1.14546 0.852557 0.827856 0.802424 0.798014 0.795797 0.768549
threshold=747.39702845930708 977.9268823093272 563.95790788497868 2.5000000000000004 2228.9969941234554 642.29253333308213 1159.2799263297591 462.5928975098721 851.91169544844706 1917.8748258747344 1684.8870457418352 835.12391301254218 1379.8125525987941 1187.5997340955021 1289.0088005912796 1054.4749595559522 404.20786775113203 690.31264847099226 513.92607644211887 903.47680643148226 792.40239783902211 2063.0309978427954 1528.8269424041353 1200.5930205483244 24.500000000000004 2311.1327031133555 1205.6450475795143 15.500000000000002 1321.1033005038273 2936.4214567341296 1078.5099592134823 5.5000000000000009 2.5000000000000004 0.90550595238095244 0.47140522875816998 0.65450928381962881 2377.2264031740556 5.5000000000000009 1.5000000000000002 0.26138716356107666 2.5000000000000004 3.5000000000000004 0.59761904761904772 2.5000000000000004 1.5000000000000002 3.5000000000000004 1.5000000000000002 0.53950103950103967 2.5000000000000004 4.5000000000000009
decision_type=2 2 2 2 2 2 2 2 2 2 2 2 2 2 2 2 2 2 2 2 2 2 2 2 2 2 2 2 2 2 2 2 2 2 2 2 2 2 2 2 2 2 2 2 2 2 2 2 2 2
left_child=2 4 7 6 8 10 15 16 20 17 23 36 18 30 25 37 -1 46 -9 49 48 42 -14 -4 32 -8 -18 -12 -15 -16 40 -17 35 34 -21 -13 -6 -3 -19 45 47 -22 43 -11 -27 -26 -7 -5 -2 -10
right_child=1 3 5 13 11 9 14 12 19 21 27 24 22 28 29 31 26 38 -20 33 41 -23 -24 -25 39 44 -28 -29 -30 -31 -32 -33 -34 -35 -36 -37 -38 -39 -40 -41 -42 -43 -44 -45 -46 -47 -48 -49 -50 -51
leaf_value=-0.0077588160552489408 0.0011547877587251545 0.0066849597706688316 -0.0022029654585358853 0.0022495104539363691 -0.00032117277302670129 -0.00057204235191063598 0.015708739295966997 -0.0044318282050965418 0.0039985328831506359 -0.0032512575124136766 -0.0039333701147412203 8.9253961791051824e-05 -0.0057035796107691925 0.0064088642007787402 0.0129761459237119 0.0082040337552444966 -0.0057378528357693659 0.00058084111294628646 -0.0032429899369279497 0.0055929776057290622 0.0026808977075926665 -0.0011328660151245272 -0.0046377599985028646 -0.0012729064171030087 0.0012536566025926784 0.010118520048566605 -0.0067076296426788976 -0.002996266297723019 0.0091393718397038484 0.01574511359698377 0.0049521311350797514 0.0093657905237590749 0.0021533467259458069 0.0051344474811863793 0.0069750579942452207 0.0018015408069699439 0.00056397279182003417 0.0077979305674283879 0.0013741349162272474 0.0029287412322543892 0.0045414182246740235 0.0035390088876242906 -0.0014553593571996776 -0.0018274902397023231 0.011350634800474768 0.0032072764650885282 0.00017360320058324059 0.0038601455175257156 0.0022738865088366231 0.0048960018286592797
leaf_weight=6567 1931 5494 11578 1357 6183 7492 183 12836 5330 2923 6448 2260 7993 1492 3088 4313 8759 7800 14816 3615 4614 14457 13783 12698 2068 3059 8876 12437 659 494 2993 4372 2668 5365 2384 1594 7591 3449 7933 4864 2002 8215 2523 2734 2595 735 6960 1775 8958 4318
leaf_count=6567 1931 5494 11578 1357 6183 7492 183 12836 5330 2923 6448 2260 7993 1492 3088 4313 8759 7800 14816 3615 4614 14457 13783 12698 2068 3059 8876 12437 659 494 2993 4372 2668 5365 2384 1594 7591 3449 7933 4864 2002 8215 2523 2734 2595 735 6960 1775 8958 4318
internal_value=0 0.00456002 -0.00295782 0.00805055 0.00276777 -0.00131785 0.00928325 -0.00509565 0.00382045 -0.000420192 -0.00241645 0.0010839 -0.00433855 0.00480666 0.0117986 0.00793927 -0.00664189 0.00040928 -0.00379485 0.00508503 0.00270014 -0.00152624 -0.00502897 -0.00171648 0.00197433 0.0108416 -0.00622596 -0.00331623 0.00724541 0.013358 0.00416119 0.00878886 0.00135212 0.00566644 0.00614222 0.000797449 0.00016664 0.00711419 0.000980841 0.00250363 0.00370009 0.00323039 -0.00222147 -0.00256316 0.010684 0.00176593 -0.000212944 0.00316231 0.00207543 0.0044002
internal_weight=0 110018 169613 37325 72693 95983 27047 73630 44730 52822 43161 27963 49428 10278 9419 17628 24202 30185 27652 21012 23718 22637 21776 24276 14189 5837 17635 18885 2151 3582 8127 8685 6522 11364 5999 3854 13774 8943 15733 7667 5134 12829 8180 5657 5654 2803 14452 3132 10889 9648
internal_count=279631 110018 169613 37325 72693 95983 27047 73630 44730 52822 43161 27963 49428 10278 9419 17628 24202 30185 27652 21012 23718 22637 21776 24276 14189 5837 17635 18885 2151 3582 8127 8685 6522 11364 5999 3854 13774 8943 15733 7667 5134 12829 8180 5657 5654 2803 14452 3132 10889 9648
is_linear=0
shrinkage=0.05


Tree=10
num_leaves=51
num_cat=0
split_feature=0 0 0 2 1 0 0 0 0 2 1 0 1 0 0 0 0 0 1 0 0 0 1 3 1 1 0 1 3 1 3 4 9 10 10 4 6 9 10 10 9 10 4 10 4 10 10 10 10 9
split_gain=1362.15 264.372 199.402 53.8802 48.4283 33.6642 33.0849 27.6905 26.3514 15.6935 10.5572 9.47818 6.05649 5.86272 5.85047 3.87333 3.70555 3.43098 3.20673 2.84465 2.80105 2.50889 1.94605 1.79659 1.7543 1.7376 1.5747 1.55699 1.38426 1.29328 1.25554 1.10873 1.05885 1.0351 1.01589 0.979971 0.950665 0.934837 0.923647 0.888552 0.868285 0.844301 0.821914 0.794189 0.781246 0.777777 0.766004 0.717736 0.712274 0.702364
threshold=737.86994514254707 977.9268823093272 555.79974291387714 2.5000000000000004 2207.0293116104267 642.29253333308213 1146.5960345662522 457.23125236079869 841.89925940917726 2.5000000000000004 1657.8115345718741 835.12391301254218 1362.7913459101756 1264.1367493995072 1159.2799263297591 903.47680643148226 1054.4749595559522 404.20786775113203 1008.5543500495641 688.01059651735227 789.71738991915538 600.05354176451453 1511.7047558252741 18.500000000000004 2715.3598764542044 1791.9611273778253 1321.1033005038273 2790.319728588885 12.500000000000002 1205.6450475795143 20.500000000000004 3.5000000000000004 2.5000000000000004 0.50490196078431382 0.93440860215053767 4.5000000000000009 1.5000000000000002 1.5000000000000002 0.913664596273292 0.41042780748663105 1.5000000000000002 0.90550595238095244 2.5000000000000004 0.19756097560975613 5.5000000000000009 0.44590643274853808 0.38585607940446659 0.25265957446808512 0.90550595238095244 1.5000000000000002
decision_type=2 2 2 2 2 2 2 2 2 2 2 2 2 2 2 2 2 2 2 2 2 2 2 2 2 2 2 2 2 2 2 2 2 2 2 2 2 2 2 2 2 2 2 2 2 2 2 2 2 2
left_child=2 4 7 6 8 10 16 17 20 19 21 30 18 28 32 38 35 -1 -9 49 41 -4 -14 -11 36 -12 -16 -15 -8 -19 -6 -17 33 -5 45 -3 -13 -33 39 -10 -37 -2 -21 -26 -30 -18 -39 -34 -22 -7
right_child=1 3 5 14 11 9 13 12 15 23 25 24 22 27 26 31 34 29 -20 42 48 -23 -24 -25 43 -27 -28 -29 44 -31 -32 37 47 -35 -36 40 -38 46 -40 -41 -42 -43 -44 -45 -46 -47 -48 -49 -50 -51
leaf_value=-0.0073708750480011498 0.0022490480610217168 0.0060697537747302216 -0.0021899200316396901 0.0025175495851566102 -0.00054679555279610488 -0.00056701483366310829 0.014806262312494978 -0.0043824948664254867 0.0039640516910532655 -0.0020284438459290625 -0.0037844740282625151 0.0018080489280269789 -0.0055291697052294239 0.011858716334475286 0.0058745681704098253 0.0044973502186012966 0.0081800199441751983 -0.0055404490385066946 -0.0032711233679165704 8.3212514163896493e-05 0.0033091645239051014 -0.0012218002773959058 -0.0045306519011873428 -0.0010984692894546082 0.0016323400781446532 -0.0028494091967178367 0.0086824032695672852 0.013966735068117195 0.0091708593637793399 -0.006455585518323953 0.00040611144628301669 0.0051297752038620354 0.0037698172734046118 0.0040120149244065387 0.0076659728587060482 0.0065265449503506909 0.00059789841804343995 0.0055326772191820577 0.0036046342897192913 0.0051567325212120178 0.0077643267707007933 0.0014377098077434853 0.0010025449177797517 0.002737199843646611 0.010370317986262399 0.0095799769738987347 0.0068510057008125003 0.0053850158072879387 0.002518168036227242 0.00014510196479316899
leaf_weight=6567 6662 3274 13714 1959 5181 7189 147 11621 3498 9819 8221 3713 7768 3222 2061 2695 2232 7580 14702 3157 6015 13070 13123 11024 2360 12557 659 1203 2259 7868 10387 4256 1291 2836 3853 2785 2883 2285 5370 2821 2884 6182 10575 5233 3402 1786 2128 1472 5402 6680
leaf_count=6567 6662 3274 13714 1959 5181 7189 147 11621 3498 9819 8221 3713 7768 3222 2061 2695 2232 7580 14702 3157 6015 13070 13123 11024 2360 12557 659 1203 2259 7868 10387 4256 1291 2836 3853 2785 2883 2285 5370 2821 2884 6182 10575 5233 3402 1786 2128 1472 5402 6680
internal_value=0 0.00419406 -0.00290365 0.00764803 0.00252133 -0.00142869 0.00881909 -0.0049491 0.0035153 -0.000500974 -0.00237361 0.000940903 -0.00426626 0.0110607 0.00456633 0.00472581 0.00745484 -0.00641352 -0.00376177 0.000281063 0.00236507 -0.0017175 -0.00490194 -0.00153657 0.00187562 -0.00321938 0.00655485 0.0124318 0.0100161 -0.00600655 8.89859e-05 0.00538312 0.00385069 0.00340145 0.00824605 0.00675848 0.00127911 0.00565849 0.00408677 0.0044965 0.00715624 0.00185854 0.00079119 0.0023938 0.00989168 0.0088023 0.00616839 0.00463032 0.0029349 -0.000224024
internal_weight=0 114396 165235 37325 77071 96006 27047 69229 47314 48444 47562 29757 47214 10233 10278 23053 16814 22015 26323 27601 24261 26784 20891 20843 14189 20778 2720 4425 5808 15448 15568 11364 7558 4795 7871 8943 6596 8669 11689 6319 5669 12844 13732 7593 5661 4018 4413 2763 11417 13869
internal_count=279631 114396 165235 37325 77071 96006 27047 69229 47314 48444 47562 29757 47214 10233 10278 23053 16814 22015 26323 27601 24261 26784 20891 20843 14189 20778 2720 4425 5808 15448 15568 11364 7558 4795 7871 8943 6596 8669 11689 6319 5669 12844 13732 7593 5661 4018 4413 2763 11417 13869
is_linear=0
shrinkage=0.05


Tree=11
num_leaves=51
num_cat=0
split_feature=0 0 0 1 0 2 0 0 0 1 1 1 0 0 0 0 0 0 1 1 0 0 0 3 1 3 3 0 1 0 4 4 4 10 4 10 9 10 5 10 9 4 4 9 10 3 4 9 10 9
split_gain=1229.83 235.071 185.894 44.8095 38.5791 38.0493 31.564 21.8282 19.9065 15.79 11.5801 7.46835 7.14719 6.48867 3.70395 3.68375 3.37696 2.93467 2.77951 2.69018 2.55153 2.48696 2.0235 1.83543 1.60142 1.52144 1.45398 1.27798 1.25944 1.00969 0.932297 0.924884 0.904178 0.882568 0.845447 0.8365 0.831522 1.11773 0.8219 0.817066 0.811615 0.806122 0.76183 0.757441 0.751148 0.733558 0.721628 0.694015 0.675676 0.871125
threshold=775.87200491785711 586.28815522224716 1027.0057469844974 2324.1417906316678 483.73222613482704 2.5000000000000004 677.32896724147201 895.46853471908219 1203.0768547389173 2027.995243810725 1751.7923478005653 1446.884972012386 895.46853471908219 427.24915761725208 1264.1367493995072 535.58625115744871 835.12391301254218 1104.0542682349771 1251.6307572680143 2692.3630167879473 719.33492945964201 957.12540010465557 529.02724129296462 16.500000000000004 1273.6870778030454 19.500000000000004 22.500000000000004 381.95844621414966 1390.6758529546753 1124.0910823067372 7.5000000000000009 3.5000000000000004 4.5000000000000009 0.90121951219512209 4.5000000000000009 0.93440860215053767 2.5000000000000004 0.67054263565891481 9.5000000000000018 0.47140522875816998 2.5000000000000004 4.5000000000000009 3.5000000000000004 1.5000000000000002 0.45080645161290328 19.500000000000004 5.5000000000000009 1.5000000000000002 0.8021739130434784 2.5000000000000004
decision_type=2 2 2 2 2 2 2 2 2 2 2 2 2 2 2 2 2 2 2 2 2 2 2 2 2 2 2 2 2 2 2 2 2 2 2 2 2 2 2 2 2 2 2 2 2 2 2 2 2 2
left_child=1 4 3 7 13 8 10 16 17 20 18 15 26 27 29 -6 42 34 -3 28 -8 41 -13 -12 -15 -11 36 -1 -10 -7 38 -22 -18 39 -4 44 37 -5 40 -23 -14 -9 -2 -20 -19 -24 -30 -33 49 -27
right_child=2 6 5 12 11 14 9 21 19 25 23 22 30 24 -16 -17 32 35 43 -21 31 33 45 -25 -26 48 -28 -29 46 -31 -32 47 -34 -35 -36 -37 -38 -39 -40 -41 -42 -43 -44 -45 -46 -47 -48 -49 -50 -51
leaf_value=-0.0074365110356432703 0.0021033626723966233 -0.0014868494586255084 0.0064832067278897442 -0.00080477593443698577 -0.0035557269846563325 0.0038266953385113463 0.00046306553715310891 0.0043900903292282481 0.014172629929985445 -0.0013271771842683776 -0.0030511011391624325 -0.0047253980618006362 0.0014019460809465275 -0.0047295412051394517 0.0074556738225226779 -0.0024428158685104494 0.0033665933544927383 0.0086026820624778202 -0.00082211630753787571 0.012724542606912873 0.0010193563745738473 0.0059173482945292242 -0.0039035550726945704 -0.0021065641568705487 -0.0056060053309339233 -0.0013429330244516232 0.0012431157942926804 -0.0062828524800736521 0.0095248706871643666 0.0051227888843215245 0.0030756564043202504 0.0013746887506376237 0.0042552471444887588 0.0054736482841642974 0.0076076696929986559 0.0081273189745550822 0.0009276725231249889 0.00086717941220072411 0.0041820423641284006 0.0072657415412547182 0.0026730740823103323 0.0052923895759766845 0.0028821701337130102 -0.00011979030933759145 0.010144318920029715 -0.0027061085985949237 0.010818913136763874 0.0023161130781597246 0.00044311247899588702 -0.00027527512546172018
leaf_weight=3304 5070 12700 2429 2618 14232 3762 11899 4847 229 9311 8527 9633 3070 11050 1129 15570 6618 1824 8058 1985 6726 2675 12039 12961 9864 2860 8719 8779 1636 2502 4284 4156 5044 4073 5361 3183 2944 1617 436 1937 2125 5059 8249 7332 1394 1431 3155 3701 1769 5755
leaf_count=3304 5070 12700 2429 2618 14232 3762 11899 4847 229 9311 8527 9633 3070 11050 1129 15570 6618 1824 8058 1985 6726 2675 12039 12961 9864 2860 8719 8779 1636 2502 4284 4156 5044 4073 5361 3183 2944 1617 436 1937 2125 5059 8249 7332 1394 1431 3155 3701 1769 5755
internal_value=0 -0.00243517 0.00451514 0.00311712 -0.00433416 0.00790811 -0.000731585 0.00409512 0.00898539 0.000209041 -0.00160769 -0.00349734 0.00146627 -0.00567586 0.00481952 -0.00297429 0.00312968 0.00790883 -0.000939334 0.0111663 0.00100639 0.00539238 -0.00417206 -0.00248138 -0.00514292 -0.000863086 0.000809229 -0.00659831 0.0105502 0.00434439 0.00251979 0.00144972 0.00375095 0.00601 0.00725705 0.00870204 0.000282267 -0.000166393 0.0020969 0.00648366 0.0019219 0.0048509 0.00258571 -0.000487519 0.0092705 -0.00377634 0.010377 0.00181814 -0.00044695 -0.000629715
internal_weight=0 181657 97974 69385 85902 28589 95755 43572 21196 46177 49578 52905 25813 32997 7393 29802 24981 14191 28090 7005 26482 18591 23103 21488 20914 19695 15898 12083 5020 6264 9915 14583 11662 8685 7790 6401 7179 4235 5631 4612 5195 9906 13319 15390 3218 13470 4791 7857 10384 8615
internal_count=279631 181657 97974 69385 85902 28589 95755 43572 21196 46177 49578 52905 25813 32997 7393 29802 24981 14191 28090 7005 26482 18591 23103 21488 20914 19695 15898 12083 5020 6264 9915 14583 11662 8685 7790 6401 7179 4235 5631 4612 5195 9906 13319 15390 3218 13470 4791 7857 10384 8615
is_linear=0
shrinkage=0.05


Tree=12
num_leaves=51
num_cat=0
split_feature=0 0 0 2 1 0 0 0 0 1 1 0 0 1 0 0 1 0 0 0 0 3 3 0 1 1 1 3 4 1 0 9 10 4 3 4 9 10 10 6 10 9 4 10 9 10 10 10 9 0
split_gain=1110.58 218.947 159.647 45.195 39.0349 28.2584 25.5272 22.97 20.9379 12.4918 8.04617 7.52447 5.50447 5.44241 4.97262 3.29989 2.86929 2.79017 2.71949 2.43425 2.1022 1.80903 1.52616 1.5244 1.39404 1.31136 1.1768 1.16277 1.12631 1.1217 1.09634 1.04247 1.08306 0.977141 0.939893 0.889692 0.855211 0.841708 0.799231 0.798113 0.759505 0.878389 0.753126 0.724034 0.706962 0.697089 0.726926 0.693392 0.688187 0.686923
threshold=735.45332497252207 972.47622060718538 563.95790788497868 2.5000000000000004 2196.1721655225479 1135.086528240877 462.5928975098721 642.29253333308213 841.89925940917726 1917.8748258747344 1684.8870457418352 828.44638242267558 1264.1367493995072 1379.8125525987941 1187.5997340955021 409.24659116524867 1022.5647778423951 903.47680643148226 1040.0256050067871 786.89210308344707 688.01059651735227 13.500000000000002 24.500000000000004 605.82236088400703 2063.0309978427954 2818.3175397299569 2263.042265477196 15.500000000000002 7.5000000000000009 1222.6315142320243 1433.692583700579 2.5000000000000004 0.65450928381962881 5.5000000000000009 20.500000000000004 4.5000000000000009 1.5000000000000002 0.913664596273292 0.41042780748663105 1.5000000000000002 0.70135135135135152 2.5000000000000004 2.5000000000000004 0.90121951219512209 1.5000000000000002 0.90550595238095244 0.39339826839826847 0.47140522875816998 1.5000000000000002 371.21279892533875
decision_type=2 2 2 2 2 2 2 2 2 2 2 2 2 2 2 2 2 2 2 2 2 2 2 2 2 2 2 2 2 2 2 2 2 2 2 2 2 2 2 2 2 2 2 2 2 2 2 2 2 2
left_child=2 4 6 5 8 18 15 10 19 20 23 34 26 16 28 49 -8 37 43 42 -9 -15 31 -4 40 -14 -7 -12 -5 -17 -16 32 -13 -20 -6 -19 -28 38 -10 -24 41 -11 -2 47 -22 46 -21 -3 -37 -1
right_child=1 3 7 14 11 12 13 9 17 24 27 22 25 21 30 29 -18 35 33 45 44 -23 39 -25 -26 -27 36 -29 -30 -31 -32 -33 -34 -35 -36 48 -38 -39 -40 -41 -42 -43 -44 -45 -46 -47 -48 -49 -50 -51
leaf_value=-0.0073097318141146107 0.00081941456135338367 0.0058535750340521931 -0.0018339108093594026 0.002897017685837288 -0.00050752581109437557 0.013176503160575071 -0.003818354988923447 -0.00019938911933464493 0.0035746961203882593 -0.0027417758717736967 -0.0033898819707622492 -8.1564712848903096e-05 0.010757674488578749 -0.0047924241385515036 0.0057986509190050715 -0.004898444530931619 -0.0027945352131231453 0.0043261823125521626 0.0067120408313494353 0.0024932063923001012 0.00031437171239744445 -0.0038796883081229981 0.0027363806430097263 -0.0010388221251791275 -0.0010719107294932882 0.012793786287538989 0.0083060496444749866 -0.0025625027645734496 0.0040518838267728117 -0.0057210123619878747 0.0091896929263031533 0.0018248689767235205 0.0015356614789855906 0.00777771821951699 0.00031435642557239938 0.0046991224775171803 0.0094588729741639996 0.0032282864606236433 0.0047058424453233355 0.001685676376260692 -0.0010754298779229021 -0.0015431661490494196 0.0018150427941675711 0.0054395489307801741 0.0010489197101192485 0.0022243824612545363 0.0035672610875677824 0.0071424596801907053 0.0058062106408273877 -0.0062616604559297866
leaf_weight=2196 2319 2510 13130 3794 5408 161 12438 13869 3498 3332 6448 2492 3394 10311 1878 8351 15214 5072 4482 3439 6513 11465 3016 11146 12191 1031 3417 12437 4760 8228 273 2855 1771 4136 9750 2875 3040 5370 2821 4510 2024 2824 10497 3764 6590 5728 2907 1786 2743 5427
leaf_count=2196 2319 2510 13130 3794 5408 161 12438 13869 3498 3332 6448 2492 3394 10311 1878 8351 15214 5072 4482 3439 6513 11465 3016 11146 12191 1031 3417 12437 4760 8228 273 2855 1771 4136 9750 2875 3040 5370 2821 4510 2024 2824 10497 3764 6590 5728 2907 1786 2743 5427
internal_value=0 0.00375635 -0.00264325 0.00683944 0.00221918 0.00790504 -0.0043721 -0.00123673 0.00311266 -0.000476169 -0.00207098 0.000802027 0.00986689 -0.00372065 0.00408005 -0.00570257 -0.00325505 0.00422245 0.00660603 0.00211483 0.000229666 -0.00431187 0.00161033 -0.00146886 -0.00141072 0.0112321 0.00895409 -0.002845 0.00353966 -0.00530668 0.00622903 0.00108547 0.000590288 0.00722349 2.11291e-05 0.00480625 0.00884881 0.00368854 0.00407968 0.00210674 -0.00191567 -0.00219193 0.00163489 0.00594583 0.000683804 0.00262427 0.00298521 0.00638941 0.00523966 -0.00656358
internal_weight=0 115497 164134 38426 77071 27721 73630 90504 47269 47343 43161 29802 11043 49428 10705 24202 27652 22379 16678 24890 26972 21776 14644 24276 20371 4425 6618 18885 8554 16579 2151 7118 4263 8618 15158 10690 6457 11689 6319 7526 8180 6156 12816 8060 13103 12074 6346 4296 5618 7623
internal_count=279631 115497 164134 38426 77071 27721 73630 90504 47269 47343 43161 29802 11043 49428 10705 24202 27652 22379 16678 24890 26972 21776 14644 24276 20371 4425 6618 18885 8554 16579 2151 7118 4263 8618 15158 10690 6457 11689 6319 7526 8180 6156 12816 8060 13103 12074 6346 4296 5618 7623
is_linear=0
shrinkage=0.05


Tree=13
num_leaves=51
num_cat=0
split_feature=0 0 0 1 2 0 0 0 0 1 1 0 1 0 0 0 0 0 0 1 0 0 0 3 1 3 1 3 3 1 6 4 9 10 9 4 4 10 10 9 1 0 4 9 4 10 10 10 4 10
split_gain=1002.53 176.212 165.822 35.384 35.2066 28.2953 24.8812 20.2756 16.9141 11.8516 8.99257 6.00395 5.7329 4.41201 3.65231 3.19013 2.91352 2.6931 2.35099 2.24305 2.17648 1.94304 1.69167 1.54915 1.28743 1.15918 1.11804 1.03713 1.01378 0.960358 0.926051 0.913358 0.910587 0.976667 0.909123 0.882549 0.858812 0.850936 0.823818 1.11716 0.802623 0.788993 0.781807 0.766631 0.746331 0.739258 0.7959 0.72057 0.719536 0.712764
threshold=762.92399468051701 577.94158736229213 1001.157454449629 2275.0720736400158 2.5000000000000004 476.23565573595209 668.84545581684722 1187.5997340955021 872.92399865907191 2001.0640350640863 1723.9474886893252 861.95849707912703 1425.6699877693743 423.23027064256206 1222.5833773881889 1086.8692189335923 529.02724129296462 1321.1033005038273 815.90331358780702 1240.6405020553241 933.44303385326884 714.86761375774711 524.6149202379321 16.500000000000004 2157.1361945500553 12.500000000000002 1262.5852040579243 29.500000000000004 25.500000000000004 859.48262794067398 1.5000000000000002 4.5000000000000009 2.5000000000000004 0.67054263565891481 2.5000000000000004 5.5000000000000009 9.5000000000000018 0.25265957446808512 0.56711711711711721 2.5000000000000004 2969.5094685919271 1433.692583700579 4.5000000000000009 1.5000000000000002 5.5000000000000009 0.92052631578947375 0.41042780748663105 0.89564428312159727 2.5000000000000004 0.3133928571428572
decision_type=2 2 2 2 2 2 2 2 2 2 2 2 2 2 2 2 2 2 2 2 2 2 2 2 2 2 2 2 2 2 2 2 2 2 2 2 2 2 2 2 2 2 2 2 2 2 2 2 2 2
left_child=1 5 3 8 7 13 10 15 18 21 19 27 16 29 34 31 -7 25 -2 -3 45 48 -14 -12 38 -9 -15 30 32 -1 -5 -4 33 -13 36 -22 -6 -36 39 -11 -19 -16 -20 -33 -17 46 -10 -23 -8 -30
right_child=2 6 4 11 14 12 9 17 20 24 23 28 22 26 41 44 -18 40 42 -21 35 47 -24 -25 -26 -27 -28 -29 49 -31 -32 43 -34 -35 37 -37 -38 -39 -40 -41 -42 -43 -44 -45 -46 -47 -48 -49 -50 -51
leaf_value=-0.0053076816843050205 0.0020414911194212176 -0.0014753987310140316 0.0055031172564677724 0.00061840872979517826 0.0028064814026587843 -0.0033418029851525624 -0.00034385941326091324 0.013209358009436492 0.0038473557159684965 -0.0024020184362290096 -0.0028333488192404245 0.00029500964250262548 -0.004368954904844821 -0.0043957149497267948 0.0057812901158465699 0.0070695215442737342 -0.0023401961172957631 0.01083713682011803 0.002698140270812771 -0.00057965062011823597 0.0047175451619337599 0.0015296396791169762 -0.0034997717914814126 -0.0019831224999301077 -0.00054850326796034032 0.0091020385874679213 -0.005168434595977738 0.001756145796907278 0.0017444153346348676 -0.0063310016291390457 -0.00024070851771184492 0.0059975855026499249 0.0022155850702384431 0.0019307598989797147 0.0034059323898206584 0.0057623765181100822 0.0043019235145121014 0.0052558431328544181 -0.00068787303186516663 -0.0010058840842407562 0.013253804132121034 0.0087302082378567358 0.0035391556950328399 0.0071157340106497565 0.008093983472918901 0.0035480314915787487 0.0050420005354840716 0.00077459844826322692 0.00050851206524913165 0.0028448598528291913
leaf_weight=3267 12413 13419 3067 7919 3336 14148 3295 178 3073 2928 9744 2183 10139 9846 1341 3333 14914 2297 6939 14585 6395 6506 12499 11901 10591 4916 8924 1305 2550 7688 5194 3048 2467 1568 1138 2955 1348 1370 2927 2806 404 273 4592 3084 3810 4873 2552 6144 9960 3479
leaf_count=3267 12413 13419 3067 7919 3336 14148 3295 178 3073 2928 9744 2183 10139 9846 1341 3333 14914 2297 6939 14585 6395 6506 12499 11901 10591 4916 8924 1305 2550 7688 5194 3048 2467 1568 1138 2955 1348 1370 2927 2806 404 273 4592 3084 3810 4873 2552 6144 9960 3479
internal_value=0 -0.00229322 0.00390847 0.00253932 0.00683674 -0.00399924 -0.000827979 0.00782404 0.00341367 2.1359e-05 -0.00160047 0.00110338 -0.0032925 -0.00522847 0.00413058 0.00682318 -0.0028278 0.0099223 0.00251901 -0.00100888 0.00449296 0.000719658 -0.00388906 -0.00236587 -0.000918254 0.00924556 -0.0047631 0.000411895 0.00191743 -0.00602583 0.000278116 0.00620759 0.00146949 0.000978789 0.0036482 0.00504776 0.00323685 0.00441645 -0.0013704 -0.0017188 0.0111986 0.00628008 0.00303306 0.00655994 0.00761596 0.00399883 0.00438935 0.00116292 0.000296625 0.00237942
internal_weight=0 176231 103400 70457 32943 81425 94806 24137 43792 45157 49649 26665 51700 29725 8806 16342 29062 7795 23944 28004 19848 25905 22638 21645 19252 5094 18770 14418 12247 10955 13113 9199 6218 3751 7192 9350 4684 2508 8661 5734 2701 1614 11531 6132 7143 10498 5625 12650 13255 6029
internal_count=279631 176231 103400 70457 32943 81425 94806 24137 43792 45157 49649 26665 51700 29725 8806 16342 29062 7795 23944 28004 19848 25905 22638 21645 19252 5094 18770 14418 12247 10955 13113 9199 6218 3751 7192 9350 4684 2508 8661 5734 2701 1614 11531 6132 7143 10498 5625 12650 13255 6029
is_linear=0
shrinkage=0.05


Tree=14
num_leaves=51
num_cat=0
split_feature=0 0 0 1 0 2 0 0 0 1 1 0 1 0 0 0 0 1 0 0 3 1 3 4 0 1 3 10 9 0 10 9 4 10 1 9 3 9 4 10 9 4 10 9 10 10 9 10 10 9
split_gain=905.401 176.214 134.567 32.3426 30.9391 27.7658 21.6014 15.4772 14.8986 10.3395 9.54937 5.76963 5.74337 5.00111 2.80804 2.71546 2.63139 2.48301 2.38986 1.74779 1.63209 1.60883 1.55569 1.4145 1.33609 1.28697 1.07682 0.981076 0.942276 0.934179 0.92896 2.78474 0.880692 0.870117 0.816072 0.78416 1.15546 0.766785 0.735401 0.73267 0.73044 0.721298 0.707223 1.51264 0.703385 0.702379 0.700127 0.961551 0.669359 0.654984
threshold=778.64491060969465 592.26283036141206 1027.0057469844974 2324.1417906316678 491.23829263604199 2.5000000000000004 690.31264847099226 883.9724472351171 1222.5833773881889 2063.0309978427954 1771.8873108145651 438.20086738384214 1465.6612970695544 895.46853471908219 1289.0088005912796 1124.0910823067372 541.78311006701699 1279.6256317960454 952.21519948873902 828.44638242267558 14.500000000000002 2763.170641305167 17.500000000000004 3.5000000000000004 391.20894585815876 1307.6734391145453 22.500000000000004 0.9104278074866311 1.5000000000000002 1124.0910823067372 0.6984848484848486 2.5000000000000004 4.5000000000000009 0.25265957446808512 1379.8125525987941 2.5000000000000004 29.500000000000004 3.5000000000000004 3.5000000000000004 0.39339826839826847 1.5000000000000002 3.5000000000000004 0.58434959349593507 2.5000000000000004 0.92052631578947375 0.71240601503759404 2.5000000000000004 0.63245614035087727 0.45080645161290328 1.5000000000000002
decision_type=2 2 2 2 2 2 2 2 2 2 2 2 2 2 2 2 2 2 2 2 2 2 2 2 2 2 2 2 2 2 2 2 2 2 2 2 2 2 2 2 2 2 2 2 2 2 2 2 2 2
left_child=1 4 3 7 11 8 10 19 15 23 17 24 16 26 29 27 -6 40 41 -2 -14 34 42 -8 -1 -13 46 39 -25 -7 31 -11 -20 37 -10 36 45 -15 -21 -4 -3 -9 43 -12 48 -35 47 -5 -17 -34
right_child=2 6 5 13 12 14 9 18 21 30 22 25 20 33 -16 44 -18 -19 32 38 -22 -23 -24 28 -26 -27 -28 -29 -30 -31 -32 -33 49 35 -36 -37 -38 -39 -40 -41 -42 -43 -44 -45 -46 -47 -48 -49 -50 -51
leaf_value=-0.0062583985821848724 0.00218726787816175 -0.0013998141884277607 0.0062284004555498325 -0.00081433889558943167 -0.002922264946152893 0.0032765187045763048 0.00059099257978899972 0.0033536343932347467 0.012535745433623386 -0.0016848907545248461 -0.003246512724249417 -0.0038822299413113306 -0.0038821612045858069 0.0011397273215980868 0.0067750961341772904 0.0076195882410595777 -0.0019809739828043353 -0.00017272516670842599 0.0045217641484297617 0.0024753403144440345 -0.0030427502734863832 0.011293213068626145 -0.0015307242539297321 0.000962095970109802 -0.0052263019028900102 -0.0046691767754031442 0.0010975643262551172 0.005812148822018158 0.0018434773001543951 0.0044907670328960553 7.4999738445059595e-05 -0.00021911371025836211 0.0049540937365913015 0.0010901507589274756 0.0092163500016043017 0.0032954672897592126 0.0044725259856465693 0.0030397358756506562 0.0033551225032309897 0.0074570828055044031 -0.0007038531088602903 0.0042677551403653277 -0.0017634889237173419 -0.001957622395996758 0.0071728526971553607 0.0024311194995948436 0.00086227197822410248 0.00074856106431655416 0.0091758862864041082 0.006033745444878647
leaf_weight=4389 11315 8274 2458 2364 14210 3762 11192 2908 193 5438 4495 11271 12083 2717 895 1614 15549 14792 3786 3491 11120 1375 10212 6563 10981 9638 8577 4536 5637 2736 3787 8018 2737 1733 4559 2100 468 660 7432 2396 6926 8367 3570 4612 2857 2237 2821 1686 1208 2886
leaf_count=4389 11315 8274 2458 2364 14210 3762 11192 2908 193 5438 4495 11271 12083 2717 895 1614 15549 14792 3786 3491 11120 1375 10212 6563 10981 9638 8577 4536 5637 2736 3787 8018 2737 1733 4559 2100 468 660 7432 2396 6926 8367 3570 4612 2857 2237 2821 1686 1208 2886
internal_value=0 -0.0020714 0.00390779 0.002702 -0.00366073 0.00678784 -0.000554728 0.00353848 0.00770809 0.00031217 -0.00122087 -0.00478559 -0.00289021 0.00128642 0.00414943 0.00686282 -0.00243044 -0.000633899 0.00452296 0.00262279 -0.00347987 0.00978699 -0.00199 0.000996935 -0.00552102 -0.00424497 0.000723929 0.00634084 0.00136934 0.00378778 -0.000616787 -0.000811481 0.00511129 0.0021628 0.00935117 0.00249943 0.00212276 0.00151106 0.00307394 0.00683489 -0.00108269 0.00403199 -0.00235997 -0.00259379 0.00772589 0.00184575 0.000257524 -0.000163709 0.00828579 0.00550822
internal_weight=0 182757 96874 68285 89241 28589 93516 42922 21196 40635 52881 36279 52962 25363 7393 15069 29759 29992 20684 22238 23203 6127 22889 23392 15370 20909 15448 9390 12200 6498 17243 13456 9409 9915 4752 6538 4438 3377 10923 4854 15200 11275 12677 9107 5679 3970 6871 4050 2822 5623
internal_count=279631 182757 96874 68285 89241 28589 93516 42922 21196 40635 52881 36279 52962 25363 7393 15069 29759 29992 20684 22238 23203 6127 22889 23392 15370 20909 15448 9390 12200 6498 17243 13456 9409 9915 4752 6538 4438 3377 10923 4854 15200 11275 12677 9107 5679 3970 6871 4050 2822 5623
is_linear=0
shrinkage=0.05


Tree=15
num_leaves=51
num_cat=0
split_feature=0 0 0 2 1 0 0 0 0 2 1 0 0 0 1 0 0 0 0 0 0 3 1 1 1 3 0 9 10 3 4 6 1 10 10 1 10 3 10 9 4 4 6 10 10 10 9 3 4 10
split_gain=818.383 161.223 117.842 33.729 28.1856 21.8871 19.3368 16.8928 14.4768 9.46517 6.07913 5.24794 4.13756 3.86434 3.62139 2.26594 2.07971 1.92433 1.88062 1.8561 1.75107 1.28847 1.24578 1.21694 1.19494 1.08205 1.04111 0.929187 1.02069 0.918725 0.90868 0.858727 0.851626 0.841249 0.83206 0.829497 0.798112 0.796643 0.897235 1.99561 0.766611 0.708203 0.703811 0.692577 0.702896 0.681907 0.647695 0.642801 0.605356 0.602091
threshold=735.45332497252207 967.10338307104212 555.79974291387714 2.5000000000000004 2196.1721655225479 1135.086528240877 635.88762092633704 457.23125236079869 841.89925940917726 2.5000000000000004 1657.8115345718741 825.38287943763555 1289.0088005912796 1159.2799263297591 1362.7913459101756 1040.0256050067871 404.20786775113203 505.24249035026872 677.32896724147201 911.950011882387 789.71738991915538 18.500000000000004 1511.7047558252741 2263.042265477196 1194.6559293657062 24.500000000000004 1364.7041533538422 2.5000000000000004 0.45080645161290328 15.500000000000002 6.5000000000000009 1.5000000000000002 2969.5094685919271 0.913664596273292 0.9104278074866311 1205.6450475795143 0.41042780748663105 28.500000000000004 0.6984848484848486 2.5000000000000004 2.5000000000000004 3.5000000000000004 1.5000000000000002 0.90550595238095244 0.42705167173252284 0.44590643274853808 1.5000000000000002 30.500000000000004 3.5000000000000004 0.13100686498855837
decision_type=2 2 2 2 2 2 2 2 2 2 2 2 2 2 2 2 2 2 2 2 2 2 2 2 2 2 2 2 2 2 2 2 2 2 2 2 2 2 2 2 2 2 2 2 2 2 2 2 2 2
left_child=2 4 7 5 8 15 10 16 20 18 24 37 23 27 17 41 -1 -9 -8 33 43 -11 -16 -7 -4 31 -15 28 -5 -12 -25 -13 -14 36 45 -18 -10 38 39 -6 -20 -3 -27 44 -2 -17 -42 -30 -21 -29
right_child=1 3 6 13 11 12 9 14 19 21 29 25 32 26 22 34 35 -19 40 48 -22 -23 -24 30 -26 42 -28 49 47 -31 -32 -33 -34 -35 -36 -37 -38 -39 -40 -41 46 -43 -44 -45 -46 -47 -48 -49 -50 -51
leaf_value=-0.0057268330740562522 0.0013525617597719859 0.0041148979093305884 -0.0016987850350136094 0.0016088832983034438 -0.0011216342502196172 0.011634498466251059 -0.00032228159233277116 -0.0033977867861166786 0.0031027836993127575 -0.0016295223921808097 -0.0029840725130847903 0.0013355325588037068 0.0095892627340897658 0.0046680831383540938 -0.0042977229446083043 0.0061226964847767087 -0.0042913378887972 -0.0025362763350906554 -0.00012482363062965918 0.0034046228095463214 0.0022756040916371233 -0.0008615738985926066 -0.0034988101005800571 0.007264489904076462 -0.0010059783985585111 0.0023693934525135713 0.0072642537622308852 0.0025224018546934806 0.0026363855558304448 -0.0022774251677144786 0.00842500908904854 0.00022928739724354167 0.012026453359366054 0.0027785350553450531 0.0056927465199598523 -0.0050242412671064234 0.0041707885636645802 0.0012005961537036179 0.00061670610540464168 0.00028124190066065413 0.00033276410266533743 0.005270130010728246 0.0013657450674279404 0.0010631616218665732 0.0023701299615339635 0.0073728430074409173 0.001055042197117134 0.0041870440268791716 0.0043932433776803078 0.0040647245395858608
leaf_weight=6567 4035 1629 13235 1892 4559 201 12512 11548 3891 10819 7565 4550 3178 2254 7768 2466 7580 14775 3835 2028 11417 11031 13123 4595 11749 2913 466 883 2443 11734 2665 2855 404 6017 4196 7868 3178 1261 3205 5710 6385 7148 4363 6509 2929 1956 6040 920 6548 2233
leaf_count=6567 4035 1629 13235 1892 4559 201 12512 11548 3891 10819 7565 4550 3178 2254 7768 2466 7580 14775 3835 2028 11417 11031 13123 4595 11749 2913 466 883 2443 11734 2665 2855 404 6017 4196 7868 3178 1261 3205 5710 6385 7148 4363 6509 2929 1956 6040 920 6548 2233
internal_value=0 0.00322455 -0.00226904 0.00581429 0.00187701 0.00672641 -0.00112479 -0.00383767 0.00264259 -0.000457267 -0.00188787 0.000665452 0.00846734 0.00347557 -0.00330433 0.00562119 -0.00498148 -0.00291422 0.00013854 0.00358774 0.00182002 -0.00124182 -0.00379587 0.00779675 -0.00137299 0.00133452 0.00511287 0.00294357 0.00253792 -0.00255442 0.00769049 0.000909019 0.00986414 0.00321306 0.0061971 -0.00466462 0.00358293 -1.16352e-06 -0.000113633 -0.000341576 0.00049314 0.00505572 0.00176756 0.00143397 0.00178054 0.00667568 0.000683876 0.00306059 0.00415946 0.00362767
internal_weight=0 115497 164134 39529 75968 28438 94905 69229 46552 50622 44283 29416 11043 11091 47214 17395 22015 26323 28772 21662 24890 21850 20891 7461 24984 14681 2720 8371 5255 19299 7260 7405 3582 13086 8618 15448 7069 14735 13474 10269 16260 8777 7276 13473 6964 4422 12425 3363 8576 3116
internal_count=279631 115497 164134 39529 75968 28438 94905 69229 46552 50622 44283 29416 11043 11091 47214 17395 22015 26323 28772 21662 24890 21850 20891 7461 24984 14681 2720 8371 5255 19299 7260 7405 3582 13086 8618 15448 7069 14735 13474 10269 16260 8777 7276 13473 6964 4422 12425 3363 8576 3116
is_linear=0
shrinkage=0.05


Tree=16
num_leaves=51
num_cat=0
split_feature=0 0 0 2 1 0 0 0 0 1 0 1 1 0 0 0 0 0 0 0 0 3 0 3 3 3 10 4 1 4 9 3 10 0 10 10 4 4 9 4 4 4 4 9 10 6 9 4 1 10
split_gain=738.641 143.293 108.329 27.5917 27.2443 18.7266 16.5231 15.7473 14.7753 8.73322 5.88154 5.55207 3.1891 3.0401 2.41388 2.34048 2.03993 1.92359 1.89738 1.82583 1.6398 1.25544 1.15983 1.08164 1.07737 0.998027 0.977015 0.874781 0.848399 0.783338 0.779111 1.24885 0.976393 0.775737 0.771427 0.848821 0.770034 0.76448 0.760712 0.732426 0.728468 0.710719 0.705743 0.68795 1.27838 0.674282 0.655505 0.655255 0.616455 0.583859
threshold=737.86994514254707 989.51400485044212 553.78493563180712 2.5000000000000004 2207.0293116104267 635.88762092633704 1173.0767376433671 851.91169544844706 457.23125236079869 1901.8677697110745 851.91169544844706 1657.8115345718741 1362.7913459101756 1187.5997340955021 1321.1033005038273 1070.0586822807675 916.44505744395212 795.06662848518874 398.64113929865454 679.36994087171206 498.23485570905876 18.500000000000004 600.05354176451453 13.500000000000002 21.500000000000004 12.500000000000002 0.22792207792207794 4.5000000000000009 1188.6365996124644 2.5000000000000004 2.5000000000000004 29.500000000000004 0.67054263565891481 1433.692583700579 0.90550595238095244 0.52440476190476204 7.5000000000000009 5.5000000000000009 3.5000000000000004 5.5000000000000009 3.5000000000000004 3.5000000000000004 6.5000000000000009 2.5000000000000004 0.62645348837209314 1.5000000000000002 1.5000000000000002 4.5000000000000009 2969.5094685919271 0.58434959349593507
decision_type=2 2 2 2 2 2 2 2 2 2 2 2 2 2 2 2 2 2 2 2 2 2 2 2 2 2 2 2 2 2 2 2 2 2 2 2 2 2 2 2 2 2 2 2 2 2 2 2 2 2
left_child=2 4 8 6 7 11 15 17 18 19 24 22 20 36 25 37 41 29 -1 -7 -10 49 -4 -14 43 -8 38 -13 -20 -2 31 32 -28 -15 35 -18 -5 -3 -12 -17 -21 -9 -27 44 -6 -34 -31 -19 -16 -11
right_child=1 3 5 13 10 9 14 16 12 21 26 27 23 33 48 39 34 47 28 40 -22 -23 -24 -25 -26 42 30 -29 -30 46 -32 -33 45 -35 -36 -37 -38 -39 -40 -41 -42 -43 -44 -45 -46 -47 -48 -49 -50 -51
leaf_value=-0.0055361687487868825 0.00061903745360191841 0.0047726178536067016 -0.0016194375421740622 0.0023709105592149395 -0.0012605363689600843 -0.00028747487935782654 0.011366146589959197 0.0025545372336058217 -0.0033028508679704542 -0.0017788458530158002 0.00057768712899892549 -0.0027736650283490052 -0.003963784707147428 0.0047392791783644429 0.0093072002582007939 0.0058261052505251994 0.0040559219893529248 0.0019952310599002702 -0.0040933246096920978 0.00017958104826776053 -0.002477905117865982 -0.00079496942730691118 -0.00094156519941930518 -0.0032339997288837402 0.00052942121951636545 0.0072392759207903709 0.00050951422344573834 -0.0021085734956250942 -0.004810619728548733 0.001208767385596155 0.0025119215064481983 0.0041780401319092744 0.0026654312848218872 0.0075917304223983286 0.0036677926485333781 0.005331720672630727 0.0034054985897347106 0.0057078802683210115 0.0022278877440528298 0.006790208449585864 0.00084932932002806645 0.0034106965553255078 0.0083679599561162603 0.00029626848231321614 0.00034294177946850806 0.0011665248528610103 0.0019596802224249006 0.0027564990396255202 0.01142513091528401 -0.00097194816085702295
leaf_weight=5506 2522 5417 14338 3136 3089 13148 192 3418 9640 7740 3284 9748 10922 1878 2297 3791 3603 7677 7970 8356 16059 11426 11270 9488 9114 3383 2216 10032 8539 5708 2997 408 1456 273 5068 2043 4217 3662 887 4101 7897 8335 2345 3452 2080 1548 5921 4474 404 3156
leaf_count=5506 2522 5417 14338 3136 3089 13148 192 3418 9640 7740 3284 9748 10922 1878 2297 3791 3603 7677 7970 8356 16059 11426 11270 9488 9114 3383 2216 10032 8539 5708 2997 408 1456 273 5068 2043 4217 3662 887 4101 7897 8335 2345 3452 2080 1548 5921 4474 404 3156
internal_value=0 0.00308844 -0.0021382 0.00574846 0.00191119 -0.00106592 0.0066028 0.00264447 -0.00366673 -0.000415503 0.000739879 -0.00180713 -0.00315793 0.00344792 0.00838534 0.0056973 0.0036166 0.00181409 -0.0047324 0.000150608 -0.00278735 -0.00116114 -0.00132111 -0.00362453 0.000150402 0.00782021 0.00155688 -0.00243634 -0.00446433 0.00141786 0.00186071 0.00151393 0.0013057 0.00510131 0.0041156 0.00451757 0.00296425 0.00514985 0.000928617 0.00632709 0.000504998 0.00316171 0.00770135 -0.000250291 -0.000615298 0.00189303 0.0015911 0.00227553 0.00962399 -0.00154513
internal_weight=0 114396 165235 35096 79300 97111 25592 48769 68124 51723 30531 45388 46109 9504 8621 16971 22467 26302 22015 29401 25699 22322 25608 20410 17735 5920 12796 19780 16509 14151 8625 5628 5220 2151 10714 5646 7353 9079 4171 7892 16253 11753 5728 8621 5169 3004 11629 12151 2701 10896
internal_count=279631 114396 165235 35096 79300 97111 25592 48769 68124 51723 30531 45388 46109 9504 8621 16971 22467 26302 22015 29401 25699 22322 25608 20410 17735 5920 12796 19780 16509 14151 8625 5628 5220 2151 10714 5646 7353 9079 4171 7892 16253 11753 5728 8621 5169 3004 11629 12151 2701 10896
is_linear=0
shrinkage=0.05


Tree=17
num_leaves=51
num_cat=0
split_feature=0 0 0 2 1 0 0 0 0 1 1 0 1 0 0 0 0 0 0 1 1 0 3 3 6 3 4 0 10 4 0 4 10 10 3 10 4 9 10 10 10 10 10 9 5 4 10 3 10 9
split_gain=666.807 119.774 107.404 24.0996 24.0353 17.363 15.2448 14.2943 12.7597 7.35456 5.70422 4.68727 3.46917 3.01323 2.79662 2.61662 1.76474 1.62381 1.57406 1.52992 1.35567 1.21768 1.08455 1.05689 0.907986 0.968118 0.886925 0.870574 0.860396 0.851841 0.830315 0.782314 0.771105 0.732763 0.709534 0.708791 0.69688 0.679059 0.671 0.624543 0.618846 0.617343 0.615013 0.605609 0.576506 0.575812 0.575768 0.55193 0.543269 0.541867
threshold=750.05186893448547 995.44446815408207 571.97651765563876 2.5000000000000004 2239.2341228651162 476.23565573595209 660.36986188195544 1203.0768547389173 858.45016876509555 1975.0328207986952 1710.9654844822753 851.91169544844706 1425.6699877693743 427.24915761725208 1086.8692189335923 1159.2799263297591 920.13071123443217 526.78509853755702 806.96991629943716 2715.3598764542044 1234.5373967394241 705.86497258682209 13.500000000000002 16.500000000000004 1.0000000180025095e-35 25.500000000000004 5.5000000000000009 1321.1033005038273 0.94519519519519524 5.5000000000000009 371.21279892533875 5.5000000000000009 0.93218390804597717 0.47140522875816998 9.5000000000000018 0.93440860215053767 3.5000000000000004 2.5000000000000004 0.43050193050193059 0.913664596273292 0.36899313501144165 0.13714733542319751 0.43050193050193059 1.5000000000000002 11.500000000000002 2.5000000000000004 0.913664596273292 18.500000000000004 0.43614130434782611 1.5000000000000002
decision_type=2 2 2 2 2 2 2 2 2 2 2 2 2 2 2 2 2 2 2 2 2 2 2 2 2 2 2 2 2 2 2 2 2 2 2 2 2 2 2 2 2 2 2 2 2 2 2 2 2 2
left_child=2 4 5 7 8 13 10 14 18 21 20 29 17 30 32 37 39 -7 36 28 43 45 -14 -12 -13 -26 -11 -17 -9 -6 -1 -18 33 -3 -15 42 -2 38 -5 40 -10 -39 -16 -4 -27 -8 48 -24 -20 -38
right_child=1 3 6 15 11 12 9 19 16 26 23 24 22 34 35 27 31 -19 46 -21 -22 -23 47 -25 25 44 -28 -29 -30 -31 -32 -33 -34 -35 -36 -37 49 41 -40 -41 -42 -43 -44 -45 -46 -47 -48 -49 -50 -51
leaf_value=-0.0057551668725317464 0.0010808227636978211 0.0049287772079734662 -0.001553037715570138 0.0015103021260677381 -0.00026509806665749594 -0.0027440889066470738 -0.00045510666797571363 0.0084782590577654558 0.0029183953332533796 -0.0012024684195519376 -0.0023793299539878287 0.0023441794013219323 -0.0036524120767343071 -0.0035472150449337523 0.0061786246653882443 0.0041174477975752443 0.0036988919770575748 -0.0019710825309081229 0.0022444342760806232 0.0095087680625755566 -0.0005615283696486814 0.00080175374066775043 -0.0030606570133525999 -0.0016734069106489901 0.00081319617458691651 0.001657349462859005 -0.00051633720585405566 0.0062051833604694923 0.0071950009474009442 0.00049969323720710558 -0.0046803602367544222 0.0046286298369972688 0.0045560208303629043 0.00613476826770132 -0.0041819971594270556 0.0057937928590961665 0.0014070698143126698 0.0021647458440375803 0.0028522901426561069 0.0026719090523760263 0.0039367025784924122 0.003972859437196356 0.0074209898737574781 -0.00090027654723319147 0.0042167288565732354 0.00029845624738697549 0.0019274842287482171 -0.0021463801568701144 0.0032375808379664552 0.0022298276069740298
leaf_weight=2196 5688 2985 8087 1424 5870 13600 3409 2502 2993 9771 10569 2533 8411 9205 2208 2061 7516 13575 3298 1770 12953 11884 10816 10640 5308 5074 9093 659 2733 9588 9887 3237 4772 2179 8437 3910 4143 660 2693 5085 2975 1658 1815 6338 230 9888 5122 1948 2364 3871
leaf_count=2196 5688 2985 8087 1424 5870 13600 3409 2502 2993 9771 10569 2533 8411 9205 2208 2061 7516 13575 3298 1770 12953 11884 10816 10640 5308 5074 9093 659 2733 9588 9887 3237 4772 2179 8437 3910 4143 660 2693 5085 2975 1658 1815 6338 230 9888 5122 1948 2364 3871
internal_value=0 0.00305662 -0.00195035 0.00551637 0.00193901 -0.00331644 -0.000798943 0.00632362 0.00264309 -0.00012525 -0.00140966 0.000799511 -0.0027318 -0.00426741 0.00557315 0.00332309 0.00352274 -0.00235794 0.00185973 0.00823798 -0.000932824 0.000433967 -0.0032116 -0.00202519 0.00149361 0.00129058 -0.000871733 0.00462326 0.00780832 0.000209272 -0.0048757 0.00397877 0.00501423 0.00543766 -0.00385079 0.00627319 0.00150408 0.00277352 0.00238812 0.00307908 0.00342601 0.00345804 0.00673913 -0.00126623 0.00176833 0.000105263 0.00231161 -0.00292112 0.00265909 0.00180449
internal_weight=0 108924 170707 34029 74895 78075 92632 24874 46292 44045 48587 28603 48350 29725 17869 9155 21806 27175 24486 7005 27378 25181 21175 21209 13145 10612 18864 2720 5235 15458 12083 10753 9936 5164 17642 7933 13702 6435 4117 11053 5968 2318 4023 14425 5304 13297 10784 12764 5662 8014
internal_count=279631 108924 170707 34029 74895 78075 92632 24874 46292 44045 48587 28603 48350 29725 17869 9155 21806 27175 24486 7005 27378 25181 21175 21209 13145 10612 18864 2720 5235 15458 12083 10753 9936 5164 17642 7933 13702 6435 4117 11053 5968 2318 4023 14425 5304 13297 10784 12764 5662 8014
is_linear=0
shrinkage=0.05


Tree=18
num_leaves=51
num_cat=0
split_feature=0 0 0 1 0 2 0 0 0 1 2 0 1 0 0 0 0 0 1 4 1 2 4 4 1 3 3 9 10 9 4 5 4 9 10 9 10 10 9 10 9 9 10 9 3 3 10 5 10 10
split_gain=602.289 117.281 89.7105 21.3515 21.3063 18.2429 13.9339 10.3165 10.1067 6.79644 6.21733 4.57934 3.73878 3.42295 1.92152 1.79679 1.58388 1.56155 1.55278 1.27353 1.11767 1.10839 1.09088 1.06462 1.04853 1.04204 0.989437 0.788175 0.757246 2.29108 0.750352 0.74545 0.739017 0.713595 0.713256 0.904259 0.704181 0.681699 0.674338 1.3133 0.660161 0.649841 0.63096 0.627624 0.607456 0.606819 0.601492 0.601039 0.588323 0.676059
threshold=778.64491060969465 594.28164584295212 1027.0057469844974 2324.1417906316678 498.23485570905876 2.5000000000000004 690.31264847099226 883.9724472351171 1222.5833773881889 2063.0309978427954 2.5000000000000004 441.51958211472498 1487.7388556757253 907.74089229267565 1289.0088005912796 1124.0910823067372 947.46592333298213 547.80228560409705 1290.6805954402755 4.5000000000000009 2790.319728588885 2.5000000000000004 3.5000000000000004 5.5000000000000009 1318.6884290140154 17.500000000000004 14.500000000000002 1.5000000000000002 0.6984848484848486 2.5000000000000004 4.5000000000000009 11.500000000000002 3.5000000000000004 1.5000000000000002 0.27149877149877155 2.5000000000000004 0.94519519519519524 0.90550595238095244 2.5000000000000004 0.67054263565891481 1.5000000000000002 1.5000000000000002 0.39339826839826847 3.5000000000000004 29.500000000000004 9.5000000000000018 0.38585607940446659 4.5000000000000009 0.92052631578947375 0.47140522875816998
decision_type=2 2 2 2 2 2 2 2 2 2 2 2 2 2 2 2 2 2 2 2 2 2 2 2 2 2 2 2 2 2 2 2 2 2 2 2 2 2 2 2 2 2 2 2 2 2 2 2 2 2
left_child=1 4 3 7 11 8 10 19 15 22 18 21 17 23 34 30 48 -6 40 37 36 -1 -8 31 -13 -12 -14 -21 29 -11 -4 -5 -18 -24 43 -36 -10 42 39 -15 -3 -34 -2 -7 -41 -23 -43 -25 49 -9
right_child=2 6 5 13 12 14 9 16 20 28 25 24 26 38 -16 -17 32 -19 -20 27 -22 45 33 47 -26 -27 -28 -29 -30 -31 -32 -33 41 -35 35 -37 -38 -39 -40 44 -42 46 -44 -45 -46 -47 -48 -49 -50 -51
leaf_value=-0.0039378405236445866 0.0017398983550332304 -0.0011214067363048486 0.0044912387397540512 -3.1156823917744609e-05 -0.0022841721542841802 0.002000336177046261 0.00045478091531273761 0.0031757395456558516 0.0083018149523287205 -0.001465067976588959 -0.0019171732739818666 -0.0030761897383843498 -0.0031185426856080284 0.00071809360293743863 0.0055721480420442022 0.0062905638271105423 0.0032708691744748365 -0.0015446214040423191 -9.7317145501614206e-05 0.002169012526324583 0.0093631931275581434 -0.0054373864298627285 0.00078391512004705145 0.00068403107152406714 -0.003751801274057161 -0.0012317009754835089 -0.0024507753994370612 0.0031400210439000136 0.00012751945180028928 -0.00013554486699925763 0.0054608931119725602 0.0035658584510816285 0.0038820990748066383 0.0015509245866663583 0.0030505857903906711 0.0047082667595685929 0.0071033501600784189 0.0014372984210960049 0.0023721006849765193 0.0020333776851334433 -0.00048203911118713987 0.0041764711849844689 0.0026400271788234778 0.0046697657606128489 0.0044570530197973824 -0.004564447809428337 0.0053726202817101377 0.0015011374431353069 0.0028611089011133994 0.0043072227980652132
leaf_weight=6047 4317 8819 2876 5379 14244 1794 11192 3446 2300 5438 12308 12537 10901 2665 895 5679 1998 14307 13103 4496 1203 2679 6563 7990 10597 10089 11295 3905 3787 8018 6514 148 3933 5637 3364 1089 2624 5974 3662 2091 7446 2096 3546 251 295 7750 2108 3133 4963 2140
leaf_count=6047 4317 8819 2876 5379 14244 1794 11192 3446 2300 5438 12308 12537 10901 2665 895 5679 1998 14307 13103 4496 1203 2679 6563 7990 10597 10089 11295 3905 3787 8018 6514 148 3933 5637 3364 1089 2624 5974 3662 2091 7446 2096 3546 251 295 7750 2108 3133 4963 2140
internal_value=0 -0.00168945 0.00318723 0.00220271 -0.00297032 0.00553876 -0.000436915 0.00288235 0.0062847 0.000256094 -0.000980919 -0.00383937 -0.00229199 0.00105254 0.00340014 0.0055885 0.00368611 -0.00191358 -0.000502387 0.00213476 0.00799695 -0.00447641 0.000811273 0.00063235 -0.00338567 -0.00160839 -0.00277873 0.00262036 -0.000497067 -0.000672848 0.0051639 6.51627e-05 0.0041325 0.00113831 0.00310098 0.00345598 0.00766315 0.00183993 0.0018555 0.00148096 -0.000828709 0.00434407 0.00214583 0.00232798 0.00233304 -0.00478869 0.00477625 0.000914184 0.00325725 0.00360921
internal_weight=0 182757 96874 68285 90357 28589 92400 42922 21196 40635 51765 39610 50747 25363 7393 15069 20684 28551 29368 22238 6127 16476 23392 16650 23134 22397 22196 8401 17243 13456 9390 5527 10135 12200 6498 4453 4924 13837 8713 5051 16265 8137 7863 2045 2386 10429 4204 11123 10549 5586
internal_count=279631 182757 96874 68285 90357 28589 92400 42922 21196 40635 51765 39610 50747 25363 7393 15069 20684 28551 29368 22238 6127 16476 23392 16650 23134 22397 22196 8401 17243 13456 9390 5527 10135 12200 6498 4453 4924 13837 8713 5051 16265 8137 7863 2045 2386 10429 4204 11123 10549 5586
is_linear=0
shrinkage=0.05


Tree=19
num_leaves=51
num_cat=0
split_feature=0 0 0 2 1 0 0 0 0 2 1 0 0 0 1 4 0 4 0 2 4 4 4 3 9 9 10 0 9 9 4 1 10 4 6 4 3 10 5 9 9 10 10 10 9 10 5 4 3 4
split_gain=544.417 107.381 78.2628 22.2076 18.7332 14.6761 13.2587 10.9791 9.65685 6.3534 3.97441 3.5424 2.88511 2.71166 2.44597 1.56872 1.41568 1.37227 1.2939 1.28601 1.20607 1.07267 0.979434 0.979036 0.967861 0.929886 0.998002 0.87708 0.817141 0.810183 0.806847 0.799605 0.778529 0.744256 0.738027 0.728845 0.706867 0.702627 0.692733 0.689127 0.636656 0.789084 0.627708 0.613634 0.590085 1.7513 0.590065 0.589694 0.587838 0.587184
threshold=735.45332497252207 967.10338307104212 553.78493563180712 2.5000000000000004 2196.1721655225479 1135.086528240877 633.83839370098701 450.88278980212209 841.89925940917726 2.5000000000000004 1657.8115345718741 815.90331358780702 1264.1367493995072 1124.0910823067372 1346.6439699829441 5.5000000000000009 502.78065897777708 4.5000000000000009 675.32011363590209 2.5000000000000004 2.5000000000000004 5.5000000000000009 5.5000000000000009 12.500000000000002 1.5000000000000002 1.5000000000000002 0.39339826839826847 1364.7041533538422 1.5000000000000002 1.5000000000000002 7.5000000000000009 1925.0712920527774 0.93844696969696983 3.5000000000000004 1.0000000180025095e-35 4.5000000000000009 10.500000000000002 0.51925925925925942 11.500000000000002 1.5000000000000002 2.5000000000000004 0.53950103950103967 0.3816526610644258 0.46770833333333339 2.5000000000000004 0.57359307359307377 3.5000000000000004 2.5000000000000004 23.500000000000004 2.5000000000000004
decision_type=2 2 2 2 2 2 2 2 2 2 2 2 2 2 2 2 2 2 2 2 2 2 2 2 2 2 2 2 2 2 2 2 2 2 2 2 2 2 2 2 2 2 2 2 2 2 2 2 2 2
left_child=2 4 7 5 8 15 10 19 20 18 24 46 32 40 16 31 -9 47 -8 -1 -2 44 38 -16 -4 -22 -27 -15 -17 -19 -14 -3 37 -33 -24 -12 -21 -7 -13 -20 41 -5 -41 -31 45 -11 -6 -10 -36 -26
right_child=1 3 6 13 11 12 9 14 17 21 35 22 30 27 23 28 -18 29 39 36 25 -23 34 -25 49 26 -28 -29 -30 43 -32 33 -34 -35 48 -37 -38 -39 -40 42 -42 -43 -44 -45 -46 -47 -48 -49 -50 -51
leaf_value=-0.0036386558664434293 0.00069375801556256593 0.0071969266393369889 -0.0014253067817415976 0.0011829166957352862 -0.00034321023283609978 0.0062173983026742145 -0.00029004939503201921 -0.0028238184483453978 0.0018171310202613625 -0.0024032639352536307 -0.0024155558254567275 0.00030061694183206684 0.0074368305684565294 0.0036682627525708037 -0.0036603949598479298 0.0046191757580494762 -0.0020940791525624826 0.0029124220030930853 6.2347953822683723e-05 -0.0048427307650476953 0.0012960968542511022 -0.0006389962054301144 0.0020450588113240533 -0.0029200982279737413 -0.001263971406777833 0.0015256167649431015 0.0025007074415209344 0.0059916568856062807 0.0056750827432781488 0.0033290869077511444 0.0088869306358215997 0.003394685260887707 0.005711941495259336 0.004372595086635094 0.00050070463288002848 -0.0018011303341898322 -0.0040751086806899081 0.007723183005759731 0.0034402868870569109 0.00031131392398223032 0.0028837023663285835 0.0025069906899465137 0.0011786014300166942 0.004448725148983197 -0.00097082138393164187 -0.00074969184714356062 0.00032813651712246955 0.0027244793331793293 0.0013632514510559233 -0.00051151305994718329
leaf_weight=7791 4056 214 13994 1982 7696 2014 12496 12086 2231 3583 9538 4396 3019 3165 6333 3752 14766 5328 8467 6073 10231 10016 2530 15150 4190 5833 4770 466 3581 2927 1406 2669 3345 7179 2954 9771 5925 1259 183 4644 2875 2603 3788 2103 5827 2895 5695 9073 5962 6801
leaf_count=7791 4056 214 13994 1982 7696 2014 12496 12086 2231 3583 9538 4396 3019 3165 6333 3752 14766 5328 8467 6073 10231 10016 2530 15150 4190 5833 4770 466 3581 2927 1406 2669 3345 7179 2954 9771 5925 1259 183 4644 2875 2603 3788 2103 5827 2895 5695 9073 5962 6801
internal_value=0 0.00263001 -0.00185067 0.00474352 0.00153027 0.00548364 -0.000930983 -0.00314682 0.00215441 -0.000387205 -0.00156588 0.000542537 0.00690923 0.00284583 -0.00274068 0.00457862 -0.00242253 0.00292635 9.57213e-05 -0.00413885 0.00148259 -0.00102318 0.00104411 -0.00313833 -0.00114951 0.00163616 0.00196428 0.00396645 0.00513482 0.00334208 0.00789759 0.00417327 0.00624838 0.00410756 0.00129135 -0.00210464 -0.00446365 0.00679662 0.000426094 0.00038098 0.00230039 0.00193462 0.000700935 0.0037972 -0.0013359 -0.00166429 -5.76961e-05 0.0025454 0.00107748 -0.000798366
